candidate,w2v_0,w2v_1,w2v_2,w2v_3,w2v_4,w2v_5,w2v_6,w2v_7,w2v_8,w2v_9,w2v_10,w2v_11,w2v_12,w2v_13,w2v_14,w2v_15,w2v_16,w2v_17,w2v_18,w2v_19,w2v_20,w2v_21,w2v_22,w2v_23,w2v_24,w2v_25,w2v_26,w2v_27,w2v_28,w2v_29,w2v_30,w2v_31,w2v_32,w2v_33,w2v_34,w2v_35,w2v_36,w2v_37,w2v_38,w2v_39,w2v_40,w2v_41,w2v_42,w2v_43,w2v_44,w2v_45,w2v_46,w2v_47,w2v_48,w2v_49,w2v_50,w2v_51,w2v_52,w2v_53,w2v_54,w2v_55,w2v_56,w2v_57,w2v_58,w2v_59,w2v_60,w2v_61,w2v_62,w2v_63,w2v_64,w2v_65,w2v_66,w2v_67,w2v_68,w2v_69,w2v_70,w2v_71,w2v_72,w2v_73,w2v_74,w2v_75,w2v_76,w2v_77,w2v_78,w2v_79,w2v_80,w2v_81,w2v_82,w2v_83,w2v_84,w2v_85,w2v_86,w2v_87,w2v_88,w2v_89,w2v_90,w2v_91,w2v_92,w2v_93,w2v_94,w2v_95,w2v_96,w2v_97,w2v_98,w2v_99,w2v_100,w2v_101,w2v_102,w2v_103,w2v_104,w2v_105,w2v_106,w2v_107,w2v_108,w2v_109,w2v_110,w2v_111,w2v_112,w2v_113,w2v_114,w2v_115,w2v_116,w2v_117,w2v_118,w2v_119,w2v_120,w2v_121,w2v_122,w2v_123,w2v_124,w2v_125,w2v_126,w2v_127,w2v_128,w2v_129,w2v_130,w2v_131,w2v_132,w2v_133,w2v_134,w2v_135,w2v_136,w2v_137,w2v_138,w2v_139,w2v_140,w2v_141,w2v_142,w2v_143,w2v_144,w2v_145,w2v_146,w2v_147,w2v_148,w2v_149,ft_0,ft_1,ft_2,ft_3,ft_4,ft_5,ft_6,ft_7,ft_8,ft_9,ft_10,ft_11,ft_12,ft_13,ft_14,ft_15,ft_16,ft_17,ft_18,ft_19,ft_20,ft_21,ft_22,ft_23,ft_24,ft_25,ft_26,ft_27,ft_28,ft_29,ft_30,ft_31,ft_32,ft_33,ft_34,ft_35,ft_36,ft_37,ft_38,ft_39,ft_40,ft_41,ft_42,ft_43,ft_44,ft_45,ft_46,ft_47,ft_48,ft_49,ft_50,ft_51,ft_52,ft_53,ft_54,ft_55,ft_56,ft_57,ft_58,ft_59,ft_60,ft_61,ft_62,ft_63,ft_64,ft_65,ft_66,ft_67,ft_68,ft_69,ft_70,ft_71,ft_72,ft_73,ft_74,ft_75,ft_76,ft_77,ft_78,ft_79,ft_80,ft_81,ft_82,ft_83,ft_84,ft_85,ft_86,ft_87,ft_88,ft_89,ft_90,ft_91,ft_92,ft_93,ft_94,ft_95,ft_96,ft_97,ft_98,ft_99,ft_100,ft_101,ft_102,ft_103,ft_104,ft_105,ft_106,ft_107,ft_108,ft_109,ft_110,ft_111,ft_112,ft_113,ft_114,ft_115,ft_116,ft_117,ft_118,ft_119,ft_120,ft_121,ft_122,ft_123,ft_124,ft_125,ft_126,ft_127,ft_128,ft_129,ft_130,ft_131,ft_132,ft_133,ft_134,ft_135,ft_136,ft_137,ft_138,ft_139,ft_140,ft_141,ft_142,ft_143,ft_144,ft_145,ft_146,ft_147,ft_148,ft_149
artes,0.05974132,-0.14648782,-0.14984302,0.031108577,0.0034488123,0.031979386,0.088299304,-0.0049095606,-0.23386334,0.08442608,-0.010891883,0.098132245,0.02546149,0.20234686,0.2149569,-0.009390464,0.18758431,-0.15118673,-0.09058176,-0.16111086,0.05486702,0.048721813,0.121459134,0.23537764,0.19082117,0.018859223,-0.17657988,-0.25021988,-0.02269033,0.19331425,0.19007027,-0.04180679,-0.09177065,-0.065227896,-0.2249423,0.021816945,0.06569464,-0.26503238,0.15231973,-0.0501395,-0.008101988,0.030002447,0.21050248,-0.019267164,-0.00070027483,-0.09496175,0.17774153,0.14947341,0.039928477,0.123840496,-0.19580336,-0.2766654,0.14012799,0.09860444,0.10033737,0.048947684,0.13803276,0.091676496,-0.040564172,-0.062134087,-0.10738486,0.10676809,-0.12955873,0.1710895,0.04326187,0.0059539936,-0.16685505,0.0513209,0.12654085,0.18190831,-0.16671583,-0.20680495,-0.12219191,0.05931068,-0.13740572,0.028098045,-0.034901176,0.18680309,-0.069825664,-0.22863567,0.06566025,0.16587734,-0.014962527,0.045579653,-0.029899228,-0.053998258,0.14292836,-0.06814474,-0.15161021,-0.104911335,-0.10342445,0.1462972,-0.041201554,-0.11274604,0.061167628,-0.11881033,0.005846564,0.13848054,0.18023974,-0.22610435,0.0052785785,0.040157363,-0.023585925,-0.08556299,-0.12429261,0.14011846,-0.06480644,0.08566832,-0.03774073,-0.10722937,0.12510648,0.14614598,-0.081465304,-0.11637385,0.20078982,-0.0890344,-0.020225896,-0.15130463,-0.27910668,-0.005602138,0.25295252,-0.1065304,0.12100023,-0.21675798,0.1283445,0.029350366,0.0880626,0.11678442,-0.19911075,-0.07630896,-0.24948367,0.020399643,0.11088979,-0.11977162,-0.12675177,-0.0068503786,0.24522924,-0.15486103,-0.04392326,0.2001256,0.06363652,-0.11291864,0.051293314,-0.20078087,0.20043072,0.094277434,0.07231768,-0.06783259,0.006156175,-0.16806297,0.069085814,0.03794024,0.019626176,0.12842213,-0.06880859,0.076035924,-0.18286616,-0.0971141,-0.29405126,0.08340827,0.22088231,0.03372898,-0.16593511,0.21149564,0.05712516,0.016157972,0.028341632,0.079352476,0.070452064,-0.27035555,0.08505034,-0.10585912,0.022279685,0.033943634,0.23840994,-0.024922132,0.084170595,-0.27541086,0.07890842,0.1017763,0.2578621,-0.027924087,-0.25405553,-0.2692966,-0.05569206,-0.1820807,-0.028898675,-0.030754706,-0.102334775,0.10797541,0.117896356,-0.0139434775,0.43919045,0.061886553,-0.23009863,-0.41707334,0.18921563,-0.068316706,0.11993044,-0.010667862,0.005931238,-0.12533094,0.023296937,0.22611979,0.09654698,-0.44606796,0.105466545,0.23783217,-0.14205663,0.019336134,-0.01863627,0.30161524,0.10818444,0.030449938,0.34423533,-0.07165301,0.102773,-0.16547713,0.09609617,0.20877665,-0.49430797,-0.048338395,0.20145625,0.1313298,0.019580038,-0.20466661,-0.21729703,0.005181237,-0.0011433089,0.0958384,0.12737244,0.32227725,-0.24012288,0.3652134,0.12758423,0.01919731,0.048782676,0.029443122,-0.22369754,0.08872592,-0.004194096,0.21568434,-0.24663074,-0.19701234,0.08384876,0.11644539,-0.11938038,-0.21614397,0.1400697,-0.2171208,0.07392098,0.20709054,0.16882038,0.06463582,-0.32004833,-0.04949187,-0.1718633,-0.23233846,0.09938787,-0.08948002,0.02010979,0.140118,0.098083705,0.14830936,0.049575593,-0.1815203,-0.0841868,0.20722832,-0.23227067,0.115351826,0.13066055,-0.22717252,0.074168034,-0.07992211,0.45818296,-0.17992355,0.07971094,-0.077453725,-0.06463368,-0.288208,-0.3062951,-0.21628052,0.17318465,0.07483328,-0.17683686,-0.040062502,-0.03014984,0.041218698,0.01526405,0.08228178,0.3068831,0.17839357,0.20453121,-0.2358404,0.014771039,-0.063544445,0.06558008,-0.19258705,0.16513926,-0.4025077
harold,0.038952243,-0.17836308,-0.13683513,0.0058461954,0.012236415,0.032432843,0.085127935,-0.014975351,-0.2377914,0.10982296,-0.016923016,0.09000298,0.04252152,0.22885253,0.20260155,-0.013808876,0.16200802,-0.16268747,-0.10702109,-0.14973593,0.07161533,0.057377074,0.10179655,0.23596667,0.19454576,0.028380865,-0.1755502,-0.23113921,-0.023782322,0.21803412,0.20922174,-0.07070506,-0.09943087,-0.07483732,-0.2283611,0.032375265,0.045073166,-0.27327114,0.124902055,-0.031853814,-0.008683984,0.031128569,0.19757867,-0.016711043,-0.011271316,-0.09626392,0.17027795,0.14112087,0.03008819,0.12723748,-0.18873699,-0.28579107,0.14154491,0.108168796,0.08759804,0.052744366,0.14306317,0.11903584,-0.03418731,-0.0455513,-0.13155031,0.09332514,-0.13702029,0.14908496,0.03221082,0.022247437,-0.15122893,0.05160456,0.15038097,0.19337612,-0.15781748,-0.17924428,-0.1060481,0.04983166,-0.1582016,0.029599654,-0.04145999,0.19734514,-0.08486808,-0.2248023,0.060714718,0.15234114,-0.029823635,0.06839744,-0.031385716,-0.043874107,0.124672085,-0.08952286,-0.13471442,-0.10805912,-0.09241736,0.15265767,-0.04526447,-0.121875525,0.060339373,-0.115224734,0.032900985,0.12986384,0.21106951,-0.21747218,0.0060628667,0.027721193,-0.03836101,-0.08968834,-0.13193746,0.14252897,-0.05123926,0.08055088,-0.04654002,-0.10565122,0.09638096,0.13982786,-0.06873081,-0.08386514,0.20823334,-0.079255976,-0.026369642,-0.10888888,-0.26819164,0.0009618636,0.2503286,-0.100593954,0.13210393,-0.20881622,0.14409778,0.03041913,0.09441526,0.11618371,-0.19934973,-0.07197199,-0.22152115,0.015149905,0.12190586,-0.13724263,-0.120796576,-0.018944576,0.22826144,-0.13941911,-0.042241532,0.20660593,0.042437732,-0.10885416,0.067220576,-0.17406833,0.18354747,0.09243698,0.07083369,-0.07281396,-0.0033132888,-0.16593093,0.0632252,0.022017019,0.031343903,0.13007109,-0.0803619,0.042268954,-0.1580523,-0.09147539,-0.27554262,0.11069614,0.19677712,0.034503054,-0.16300206,0.21447244,0.07597567,0.06350022,0.013202786,0.061716147,0.06163738,-0.26902124,0.07432921,-0.1257292,0.043285694,0.011384186,0.23105752,-0.017441535,0.08346444,-0.25798663,0.0891325,0.114703216,0.23393297,-0.042026363,-0.24599038,-0.24739704,-0.048921563,-0.15281527,-0.02173914,-0.014742524,-0.12244825,0.12324643,0.12880749,0.009155987,0.4228731,0.046747413,-0.25343424,-0.41603902,0.18579237,-0.06373743,0.09169741,-0.01063,0.013271543,-0.15020235,0.010686784,0.19878176,0.09920858,-0.42932332,0.10742926,0.21651056,-0.13490668,0.0028316495,-0.020131556,0.28490365,0.093837544,0.014434336,0.34738293,-0.06883745,0.118352614,-0.15911528,0.117594935,0.19156063,-0.4907625,-0.050130885,0.1852194,0.11997747,0.0036493887,-0.19375281,-0.22079432,0.011703997,0.009179122,0.09871407,0.13817033,0.3116114,-0.24420905,0.38542598,0.13573477,0.023492713,0.034470033,0.01703937,-0.23116931,0.11102829,-0.039694697,0.23998019,-0.24645106,-0.2014517,0.07227786,0.118034415,-0.08781811,-0.20908889,0.14332716,-0.20348622,0.07570074,0.21722655,0.17222448,0.04161795,-0.32324445,-0.04245139,-0.18795225,-0.27220085,0.13401407,-0.10590246,0.020481262,0.16368413,0.09164444,0.17957276,0.06253636,-0.17574383,-0.085445955,0.22562066,-0.24338347,0.13569812,0.13239367,-0.23559396,0.063156635,-0.070358716,0.48310232,-0.15843973,0.080063395,-0.099560484,-0.056348957,-0.2817936,-0.3097542,-0.22291121,0.18097697,0.06461391,-0.17912062,-0.03172053,-0.044802044,0.052376438,0.013339378,0.097192675,0.29916945,0.17365985,0.22047463,-0.24806955,0.038688604,-0.076083906,0.06936313,-0.22300355,0.17888018,-0.41045517
jara,0.031820633,-0.1813121,-0.14087662,-0.010616165,0.021034738,0.029641667,0.08548381,-0.017529491,-0.24365035,0.11390688,-0.023932774,0.09398517,0.051871657,0.2355077,0.20258301,-0.015496367,0.15011163,-0.17328708,-0.11066368,-0.15372483,0.07925059,0.050774593,0.094621375,0.2342914,0.20253986,0.030975996,-0.16847286,-0.23908153,-0.02321787,0.22952951,0.21301766,-0.07701725,-0.10060079,-0.072263904,-0.23656978,0.037390687,0.039269384,-0.28052226,0.13107827,-0.03434726,-0.011599675,0.018056909,0.19628192,-0.016632639,-0.014510315,-0.09444874,0.16836795,0.13847917,0.041839827,0.13025603,-0.20607154,-0.2908438,0.15697935,0.110624894,0.08845226,0.05521224,0.15352099,0.13101585,-0.032997835,-0.04812124,-0.14478385,0.088261105,-0.13700876,0.13885249,0.04370964,0.03767465,-0.15200996,0.055337813,0.15726694,0.19322695,-0.16715252,-0.1889967,-0.09980411,0.045089383,-0.16528659,0.027245434,-0.044033445,0.20745406,-0.08551445,-0.23511001,0.054929733,0.15204301,-0.03807306,0.079086,-0.034689836,-0.046828896,0.14184423,-0.09823744,-0.12987126,-0.107869186,-0.08140693,0.15451221,-0.047887225,-0.13336946,0.0627358,-0.12309546,0.047930937,0.14110276,0.22185826,-0.2076977,0.0076564113,0.029973319,-0.03660284,-0.09788195,-0.12342046,0.14713803,-0.041893326,0.08393346,-0.061702315,-0.103990965,0.096468136,0.14124553,-0.07480483,-0.07577678,0.20957337,-0.081681654,-0.03141935,-0.11098423,-0.263042,0.0050532,0.24981658,-0.103660755,0.14134245,-0.21666259,0.1362906,0.03672451,0.092719875,0.111152634,-0.20100087,-0.07566565,-0.2213705,0.022083756,0.12150765,-0.13603702,-0.1242483,-0.01917851,0.21344745,-0.13490151,-0.03504783,0.20247121,0.034664456,-0.109483026,0.06629436,-0.17595476,0.18109567,0.086625986,0.068444856,-0.07161059,0.00015620308,-0.16601963,0.060001932,0.024082549,0.034120187,0.12795031,-0.08352141,0.031288743,-0.16067782,-0.09568964,-0.27277678,0.11726529,0.19190282,0.032798026,-0.1589316,0.21890509,0.086886086,0.07189492,0.009962752,0.063256845,0.055095468,-0.27424544,0.07144048,-0.1298187,0.04308288,0.0061596474,0.22855894,-0.013858353,0.08301844,-0.2424506,0.099718325,0.1257302,0.23625171,-0.0452448,-0.24209851,-0.24493349,-0.04734821,-0.14935169,-0.025253767,-0.014576825,-0.13458268,0.12288146,0.12388805,0.00938685,0.4119877,0.05046228,-0.25667807,-0.4202387,0.18830884,-0.06402015,0.08690266,-0.016335161,0.009401975,-0.15492074,0.0044571236,0.19262981,0.09518577,-0.422993,0.10731315,0.20718764,-0.12266948,0.00077887916,-0.022997743,0.27387217,0.09189892,0.008387679,0.34007317,-0.06204708,0.11521259,-0.15823647,0.123577066,0.18351461,-0.49216533,-0.05016317,0.18181576,0.11793843,0.002515653,-0.19816798,-0.22640328,0.015959011,0.014654711,0.09009442,0.13529278,0.31681317,-0.24991797,0.39251584,0.13464318,0.021098185,0.035120692,0.014255164,-0.23718137,0.113271296,-0.04807077,0.24264959,-0.25453264,-0.20534985,0.06237887,0.121139266,-0.07859712,-0.19884172,0.14913717,-0.20300493,0.070267655,0.2208215,0.17329006,0.03486205,-0.3240842,-0.038669225,-0.19255224,-0.28595766,0.14165185,-0.10217894,0.014463752,0.1754869,0.08346902,0.18271893,0.062333133,-0.17936575,-0.085138336,0.2254993,-0.246084,0.13748024,0.13579443,-0.24334225,0.065271996,-0.07691851,0.49217778,-0.15520412,0.076336265,-0.09796201,-0.060670123,-0.28442973,-0.3233977,-0.2334259,0.19378202,0.06950073,-0.1754016,-0.02601499,-0.053171907,0.06280418,0.016924145,0.1090312,0.29726627,0.1849413,0.22628365,-0.2642129,0.037763126,-0.08210443,0.06915468,-0.23983333,0.18930893,-0.43064615
kaiser,0.04302115,-0.16968955,-0.11951973,0.008142525,0.0051845666,0.031309675,0.08692198,-0.011939616,-0.21873136,0.10743234,-0.01887316,0.08130208,0.032684125,0.21505636,0.19631709,-0.015511631,0.16440995,-0.15270275,-0.105321065,-0.14893338,0.072840676,0.063347764,0.10030183,0.23200789,0.18963489,0.029191893,-0.1774972,-0.21751796,-0.01569968,0.20683531,0.190225,-0.06267912,-0.09215841,-0.070931934,-0.21086824,0.02819111,0.049476072,-0.26743072,0.12544878,-0.037319653,-0.004215443,0.04399409,0.19134837,-0.012665337,-0.005079056,-0.100308105,0.15777697,0.134557,0.025661562,0.11316098,-0.17689417,-0.27583086,0.1266656,0.10202967,0.08121948,0.052616797,0.12569149,0.10594987,-0.031123448,-0.04485685,-0.11235771,0.097280174,-0.12481106,0.15166922,0.027503358,0.0064697536,-0.14576364,0.041831538,0.13808487,0.19441505,-0.15305294,-0.17170969,-0.10482914,0.05125329,-0.15067676,0.023479672,-0.033578604,0.18454972,-0.07267956,-0.21609293,0.07310504,0.13409582,-0.025393842,0.058582872,-0.027117431,-0.041195344,0.1075078,-0.08124408,-0.13466135,-0.10308834,-0.09976343,0.13430165,-0.05113422,-0.11273063,0.06728991,-0.10613349,0.023879126,0.12739505,0.20018616,-0.21864264,0.0010385001,0.0258359,-0.041452736,-0.08342012,-0.12867662,0.1359723,-0.052210618,0.07663029,-0.043824174,-0.09741783,0.09268478,0.13588656,-0.07212572,-0.075721554,0.2033766,-0.073819965,-0.022357104,-0.107451946,-0.26558828,-0.0027699955,0.24028805,-0.10217568,0.11896727,-0.19773583,0.13661255,0.025370738,0.09042801,0.10929922,-0.19357526,-0.07433996,-0.21503682,0.0033991153,0.11632458,-0.1319477,-0.11293408,-0.016924007,0.22657488,-0.14103307,-0.04757856,0.2042423,0.038079344,-0.10010492,0.07113795,-0.17700869,0.17948069,0.09801379,0.071384184,-0.068671696,-0.011519481,-0.16155213,0.07121257,0.031350788,0.03321499,0.11979689,-0.07807137,0.051978897,-0.15510438,-0.08325576,-0.28016567,0.11320919,0.20075351,0.048402116,-0.16751371,0.21232961,0.06454394,0.045528945,0.011305393,0.05622249,0.06937275,-0.2776251,0.085544735,-0.11115255,0.046022326,0.017699853,0.2422967,-0.029351719,0.091281235,-0.26577756,0.082725495,0.11242236,0.22564478,-0.041101947,-0.24268317,-0.25409135,-0.049047608,-0.15980355,-0.020525489,-0.018113934,-0.114696585,0.12442387,0.12699376,0.0050941473,0.4323396,0.038383093,-0.25150675,-0.41298983,0.1827731,-0.056758765,0.09261428,-0.0056022196,0.015780253,-0.14039244,0.01599432,0.20574284,0.09913521,-0.43068418,0.10245349,0.22047459,-0.1441377,0.003530596,-0.022406908,0.29734123,0.09040008,0.018753273,0.34666792,-0.071797065,0.118646406,-0.16369314,0.10118671,0.19730599,-0.48768815,-0.052069243,0.18608584,0.1348069,0.008761053,-0.18789555,-0.21372049,0.016096748,0.0014196361,0.0979004,0.13130212,0.30884662,-0.24051163,0.37763762,0.13746676,0.020329334,0.041323096,0.020565832,-0.22802159,0.09910773,-0.03652322,0.23638113,-0.25057608,-0.19874454,0.083420664,0.115502566,-0.08586073,-0.22956917,0.13997966,-0.20413464,0.069819756,0.21896383,0.16001995,0.054870024,-0.3243231,-0.047150135,-0.18811075,-0.25772467,0.12398112,-0.10894207,0.022111058,0.1635044,0.10396274,0.18158929,0.068356246,-0.18100987,-0.09071898,0.22554375,-0.23785691,0.14609282,0.13370532,-0.23385823,0.063761346,-0.067216165,0.47047514,-0.15529832,0.07894142,-0.09478953,-0.05297587,-0.26757157,-0.2943845,-0.2145329,0.16597627,0.06122924,-0.1817085,-0.031847395,-0.040464252,0.04500058,0.0102643985,0.085237056,0.28409225,0.15115213,0.20973314,-0.22438407,0.03797666,-0.056930102,0.07291371,-0.20400456,0.16013478,-0.37152055
kast,0.04188671,-0.17157485,-0.15084326,0.009322022,0.019903794,0.029714152,0.085184515,-0.017756416,-0.24217282,0.0966776,-0.012705119,0.08740534,0.0530064,0.22173543,0.204037,-0.010377339,0.16516186,-0.16257824,-0.102189586,-0.14674462,0.06449087,0.05831449,0.11222405,0.23696446,0.19403814,0.022217112,-0.16916724,-0.24125569,-0.030154133,0.21420737,0.20138031,-0.06397211,-0.103797756,-0.07943453,-0.23266852,0.02468159,0.04030963,-0.26847214,0.13673127,-0.039116625,-0.011640086,0.014513522,0.19631569,-0.01815477,-0.0017428667,-0.09573524,0.18200682,0.1422511,0.040071525,0.13416767,-0.20197855,-0.28089604,0.14356676,0.10478074,0.0956935,0.05020073,0.15016331,0.11801687,-0.04069661,-0.04882159,-0.13873838,0.09833052,-0.13628763,0.14572848,0.0477959,0.03280955,-0.16281347,0.055574976,0.15090725,0.18827389,-0.16388473,-0.19255121,-0.104260124,0.056897484,-0.15737508,0.026578212,-0.042485636,0.19095726,-0.08565046,-0.23718438,0.05467171,0.16518271,-0.031553756,0.07029989,-0.03536164,-0.049719304,0.14069289,-0.09396469,-0.13589558,-0.10643478,-0.08882013,0.1582689,-0.03704573,-0.12301222,0.04947232,-0.12633069,0.03058692,0.13543914,0.20573881,-0.21508262,0.0114718685,0.033968944,-0.019092882,-0.09099638,-0.13201839,0.14134204,-0.052294567,0.087552354,-0.046579946,-0.10618055,0.11449537,0.14615431,-0.07484026,-0.096283585,0.20916897,-0.083777115,-0.022742635,-0.12182232,-0.27002242,0.0038186023,0.2564372,-0.102851845,0.13072124,-0.22025034,0.14159553,0.034570046,0.100706585,0.12566134,-0.20232593,-0.071459256,-0.23263833,0.023192525,0.11834426,-0.12954414,-0.13219032,-0.006906503,0.23019311,-0.14224343,-0.043754246,0.20502266,0.042045645,-0.10592817,0.06529829,-0.17836432,0.18808562,0.09237382,0.06876553,-0.06938559,0.0023296918,-0.17066446,0.0602965,0.030430684,0.024634369,0.12847236,-0.067684956,0.046910442,-0.16371587,-0.10407226,-0.2799058,0.08900866,0.20339988,0.021899784,-0.1512654,0.2131163,0.07567587,0.046435345,0.018584922,0.07816058,0.051736265,-0.2619337,0.07506575,-0.11640198,0.023041632,0.017826911,0.22265507,-0.020346621,0.081161864,-0.24765359,0.08625306,0.11740757,0.24390131,-0.033022877,-0.24536787,-0.25172558,-0.04759731,-0.16762747,-0.03865541,-0.024414206,-0.120968565,0.11990783,0.12296378,-0.007821395,0.4149944,0.05681499,-0.23680966,-0.4184722,0.1873183,-0.07431442,0.09833537,-0.011499886,0.0049077743,-0.1511925,0.009834714,0.20100611,0.10239889,-0.42752334,0.108662285,0.22064659,-0.1366115,0.004435129,-0.025675165,0.28034988,0.10075049,0.00861179,0.33975962,-0.05901161,0.10616886,-0.16411966,0.11627295,0.1905173,-0.49217963,-0.043634787,0.18458799,0.11242605,0.0067572226,-0.198846,-0.22351491,0.006903853,0.01443636,0.08610116,0.1290527,0.32065916,-0.24573162,0.38314542,0.12350938,0.026508223,0.032932185,0.01398288,-0.22333544,0.10009502,-0.032799006,0.22608094,-0.2505034,-0.20261866,0.0653678,0.11806863,-0.094368316,-0.18924405,0.14542481,-0.20608795,0.07525559,0.20914158,0.18117471,0.05403844,-0.3250864,-0.042461332,-0.18312092,-0.26433972,0.12528408,-0.0981996,0.016597833,0.16348316,0.085735075,0.16393656,0.06042072,-0.17256615,-0.08028651,0.21723652,-0.24621318,0.11484496,0.13211392,-0.23868707,0.061076757,-0.084320284,0.48442757,-0.16138105,0.080228284,-0.08664918,-0.05672002,-0.2905341,-0.32188374,-0.22984046,0.18527241,0.07683614,-0.16869628,-0.027762791,-0.03812495,0.054925434,0.010081834,0.10259941,0.30835378,0.20045519,0.22063257,-0.26415476,0.030058412,-0.08424248,0.067832276,-0.2221572,0.18719867,-0.4377235
matthei,0.03346888,-0.19001621,-0.11854114,-0.00042859168,0.015057929,0.036852125,0.077896655,-0.020217795,-0.23182917,0.12138802,-0.006101881,0.091143124,0.032772377,0.23373635,0.20126985,-0.0105821425,0.15362923,-0.16582572,-0.113929875,-0.15636091,0.083169855,0.051213853,0.09907128,0.23504819,0.2003438,0.034751844,-0.18032223,-0.23143455,-0.01923355,0.2243937,0.21446729,-0.07430439,-0.096394375,-0.064922884,-0.23792686,0.038565546,0.04072874,-0.27833322,0.12164619,-0.023822831,-0.0030887478,0.0455992,0.1944567,-0.017089538,-0.017117115,-0.10087335,0.16955516,0.14404732,0.019772526,0.12690818,-0.19395909,-0.29801947,0.14330877,0.111647815,0.08303223,0.04748393,0.1410216,0.1242899,-0.018847767,-0.03616533,-0.12617253,0.0908215,-0.14488016,0.1483233,0.029910853,0.026804494,-0.13393566,0.05016921,0.16063209,0.195428,-0.15707794,-0.17702822,-0.10089836,0.04776295,-0.16572969,0.032315552,-0.030429456,0.20336044,-0.08679212,-0.21729878,0.0645987,0.14523786,-0.03334918,0.06919202,-0.035597563,-0.050993547,0.12415919,-0.09276041,-0.13114704,-0.10725974,-0.08950675,0.14011158,-0.05552952,-0.12112714,0.07101409,-0.11448882,0.04278715,0.13106117,0.2251248,-0.21288225,0.0013142892,0.029980727,-0.053005636,-0.08689213,-0.12203914,0.13423684,-0.044738874,0.084439866,-0.049902543,-0.09874059,0.08427692,0.13198343,-0.08237043,-0.06949745,0.20701118,-0.0787558,-0.026836602,-0.10024994,-0.2579762,0.00603985,0.247518,-0.09159551,0.13561259,-0.21049792,0.14535388,0.030629069,0.094939545,0.10569921,-0.19335714,-0.083186425,-0.2211239,0.013942709,0.11473679,-0.13800897,-0.11892946,-0.023791006,0.22008277,-0.13838165,-0.04770403,0.20529798,0.046408117,-0.1201328,0.054106228,-0.16509289,0.17032868,0.09034799,0.06728134,-0.058597963,0.001141009,-0.16596134,0.06555534,0.015801806,0.037449937,0.12542917,-0.08679517,0.031212674,-0.15687796,-0.07815319,-0.26006958,0.11803187,0.19318488,0.03628816,-0.16966262,0.21549878,0.0808541,0.08275005,0.01587182,0.055427875,0.0610802,-0.2776083,0.06895142,-0.13520463,0.05505315,0.0031601635,0.23344299,-0.014699824,0.077901594,-0.24672642,0.10539082,0.116206184,0.22636598,-0.0459198,-0.24142292,-0.24004824,-0.049590815,-0.1432884,-0.015619158,-0.01221187,-0.12773696,0.12404179,0.13472274,0.025249857,0.4173585,0.041225675,-0.26314077,-0.42195302,0.18819402,-0.05669283,0.08379453,-0.0072881216,0.010879675,-0.1540917,0.004049067,0.20263748,0.095426306,-0.42800087,0.1056486,0.20529039,-0.13206276,0.0009236842,-0.014649354,0.27555847,0.08350442,0.015596556,0.3521623,-0.06621087,0.1263926,-0.15984283,0.12525485,0.18450028,-0.49228486,-0.056880932,0.19068518,0.12271048,-0.00515355,-0.1953674,-0.21793714,0.017516762,0.009776078,0.105239406,0.14384902,0.30917343,-0.24003716,0.39678818,0.14064491,0.020895649,0.03551526,0.012194521,-0.24153952,0.11740786,-0.051825795,0.24970388,-0.2488965,-0.2020839,0.06497772,0.11941965,-0.08600562,-0.21404526,0.1441531,-0.2037013,0.067937054,0.21639422,0.16809049,0.029023929,-0.30550912,-0.039217237,-0.18830933,-0.27998874,0.14474373,-0.100702055,0.016806366,0.15850395,0.08268637,0.1919519,0.055816665,-0.17707804,-0.08392409,0.2232953,-0.23353279,0.14522102,0.13266923,-0.22873017,0.06464744,-0.0653872,0.48529008,-0.15418887,0.08661094,-0.10515026,-0.059433892,-0.2852381,-0.30741715,-0.22264895,0.17843999,0.059657816,-0.18483569,-0.030926567,-0.053327627,0.047880005,0.010354449,0.09792618,0.29616818,0.1603064,0.21728562,-0.23590544,0.031436592,-0.075197816,0.065834574,-0.22993538,0.17025508,-0.39805633
meo,0.048703764,-0.16236949,-0.1264203,-0.009015221,0.0035815255,0.023437236,0.09470776,-0.00051625556,-0.23669061,0.1202466,-0.020971697,0.09624988,0.03789338,0.2258257,0.20848757,-0.013139566,0.16384777,-0.16636367,-0.110538274,-0.15565906,0.06573264,0.058434654,0.104850166,0.2462377,0.20672143,0.026507825,-0.189416,-0.2236996,-0.011799617,0.21274537,0.19453378,-0.054923214,-0.09155141,-0.067757465,-0.21472757,0.02783667,0.06650509,-0.2943004,0.12519832,-0.049115792,0.0019267709,0.048916217,0.20990923,-0.0066992026,-0.0070940214,-0.0868539,0.14807826,0.14573266,0.039872985,0.10805483,-0.18556508,-0.29936337,0.15078898,0.10590901,0.074442565,0.05692339,0.13463543,0.095121875,-0.044896364,-0.06124912,-0.12058394,0.09361604,-0.13538006,0.15079889,0.02761931,-0.0007365617,-0.1513911,0.046607975,0.12926018,0.20509067,-0.1611467,-0.18094938,-0.1086111,0.040390402,-0.15692051,0.03169619,-0.05259313,0.2107219,-0.06534785,-0.22101502,0.077273406,0.12275721,-0.033044018,0.06470185,-0.024487924,-0.041832443,0.10614963,-0.06868264,-0.1378018,-0.113374375,-0.101958744,0.14969736,-0.05425728,-0.13086757,0.08101735,-0.10406815,0.019045778,0.13244958,0.20602888,-0.22833191,-0.0059582735,0.018766914,-0.06013021,-0.09481501,-0.11840203,0.13914262,-0.05578793,0.07550085,-0.05491303,-0.097591184,0.09581393,0.14168571,-0.077429526,-0.08734766,0.21825914,-0.08011796,-0.020383282,-0.1277572,-0.26739058,-0.0024660304,0.25728226,-0.10648984,0.12599516,-0.20574667,0.13553648,0.02168353,0.09808104,0.09952613,-0.2035315,-0.0627422,-0.20969288,-0.00090201176,0.13622656,-0.1360756,-0.116644315,-0.016647069,0.22700532,-0.13545744,-0.036392264,0.22205906,0.026338177,-0.11252111,0.08244493,-0.18947832,0.18434627,0.10644007,0.06871815,-0.06875608,-0.01606402,-0.17427641,0.08125391,0.04157604,0.022519886,0.1097117,-0.0794242,0.042822905,-0.16353506,-0.09584454,-0.30385646,0.11805319,0.20534322,0.057977937,-0.17094621,0.22148822,0.06887341,0.035928223,-0.0015880823,0.051241856,0.07425914,-0.28525135,0.097163215,-0.11350021,0.04101605,0.020093214,0.25812572,-0.03429826,0.097153924,-0.28342843,0.090102986,0.111970894,0.23814812,-0.042567085,-0.26189822,-0.2655549,-0.050157998,-0.16107053,-0.01343895,-0.021044372,-0.1182639,0.11787497,0.11502154,-0.005322062,0.43152395,0.05206097,-0.2540744,-0.41940922,0.19633836,-0.057366297,0.101558045,-0.01858282,0.032144137,-0.1332793,0.030828752,0.21505919,0.102179185,-0.4413014,0.095576905,0.23773442,-0.13893786,0.010552738,-0.018288577,0.30508032,0.083846696,0.017167427,0.34493312,-0.0852128,0.12446215,-0.15519303,0.09844871,0.2075885,-0.50536233,-0.051751714,0.18110049,0.14718117,0.004754612,-0.19191585,-0.22343192,0.025091123,0.002371507,0.094180584,0.12522101,0.3167726,-0.24820822,0.38640493,0.13549195,0.016315889,0.033938542,0.036271095,-0.22606066,0.097016595,-0.01981013,0.25086126,-0.26029772,-0.20321804,0.088767976,0.11725522,-0.083103366,-0.23293674,0.14788799,-0.21312045,0.08081066,0.2214762,0.14923137,0.04704096,-0.34788057,-0.051706363,-0.18944669,-0.26139152,0.11588508,-0.12700427,0.020686736,0.18189949,0.09428151,0.18104726,0.08151628,-0.18160297,-0.10729754,0.22512965,-0.23266026,0.15505429,0.16378586,-0.24034755,0.077475145,-0.078334205,0.48085284,-0.16755185,0.08453161,-0.09358196,-0.059733577,-0.2650716,-0.29768342,-0.22341442,0.1795762,0.069015115,-0.18144876,-0.040727954,-0.04097548,0.07083769,0.03694454,0.0780687,0.2768786,0.14212625,0.2221446,-0.23576115,0.03651107,-0.043650337,0.08198208,-0.20480464,0.15526101,-0.3539807
parisi,0.03651477,-0.18679114,-0.09089974,0.007953402,-0.0016289246,0.04242113,0.08353737,-0.011427239,-0.20756863,0.1237039,-0.013653981,0.07687008,0.01562236,0.21764776,0.1932898,-0.015695672,0.1590554,-0.15270682,-0.116311386,-0.15467262,0.08542418,0.06862837,0.09049859,0.22910747,0.19086428,0.036419086,-0.18422683,-0.19752863,-0.0073843263,0.20883544,0.19544356,-0.068536535,-0.08742062,-0.065786675,-0.20303275,0.03430763,0.045407295,-0.26365575,0.11208053,-0.029893195,-0.0048713326,0.067465104,0.18479398,-0.013449537,-0.013643568,-0.102914706,0.15485941,0.13402876,0.010806842,0.10761175,-0.16494858,-0.2790215,0.12031194,0.10226859,0.06673504,0.047880385,0.120984636,0.10051043,-0.011945965,-0.035602257,-0.10852067,0.08752037,-0.120246045,0.14848818,0.018083764,-0.001762894,-0.12361839,0.03563037,0.1421243,0.19938384,-0.14467701,-0.155024,-0.10664358,0.047003668,-0.1558879,0.027650846,-0.030050807,0.18534444,-0.07225824,-0.19737446,0.08575079,0.112758115,-0.03182453,0.056910694,-0.022218157,-0.034193076,0.0954644,-0.083518475,-0.13612203,-0.09948382,-0.107792206,0.12750584,-0.06475586,-0.11094264,0.07479067,-0.10131476,0.030970884,0.122925565,0.21907336,-0.21377201,-0.008241363,0.025007656,-0.06268642,-0.083521016,-0.12699607,0.12871101,-0.045969483,0.07457768,-0.04281227,-0.091386706,0.07028247,0.12551366,-0.07720319,-0.055958573,0.2011744,-0.0619166,-0.022192823,-0.08799194,-0.255444,-0.0041778795,0.22485974,-0.095006295,0.11683643,-0.18997909,0.13993548,0.021819385,0.08167381,0.09853019,-0.18495835,-0.08221232,-0.20341845,-0.0096820565,0.110720396,-0.13293533,-0.10043273,-0.023513436,0.22230452,-0.1426721,-0.0561615,0.20900902,0.032522276,-0.098546684,0.07076902,-0.16093507,0.17159559,0.09578334,0.07198886,-0.06769466,-0.014866727,-0.15846892,0.07502862,0.021485224,0.046428286,0.12636362,-0.09114298,0.054451443,-0.15484904,-0.06446035,-0.2731629,0.12983581,0.19681187,0.06007216,-0.18531233,0.21785867,0.07080195,0.074403554,0.011751926,0.041981254,0.07603192,-0.29263797,0.07329123,-0.12765966,0.06719144,0.010696608,0.24895884,-0.018926505,0.08888604,-0.26338205,0.089049354,0.11149197,0.21753153,-0.044938486,-0.2448803,-0.24504519,-0.050797854,-0.14657308,-0.008419688,-0.007282047,-0.11549496,0.124601334,0.13830999,0.028377412,0.43427968,0.02345033,-0.27105847,-0.41312,0.18186162,-0.046378817,0.08414766,0.0012913134,0.0174418,-0.1404851,0.01565829,0.20601228,0.09058598,-0.4342917,0.10396337,0.20451513,-0.14483908,-0.0004002809,-0.014517349,0.29715705,0.0888319,0.03166768,0.3562013,-0.07552034,0.13213623,-0.16072583,0.103574105,0.19359684,-0.48792514,-0.061494146,0.19096352,0.1369508,0.0061670337,-0.18199755,-0.21209842,0.018724605,-0.00013342816,0.11489403,0.14625259,0.29837066,-0.2430034,0.387746,0.14921269,0.01712224,0.046870343,0.016209846,-0.24371994,0.11155998,-0.051249593,0.24427022,-0.24345861,-0.19301876,0.08602168,0.11695256,-0.084709235,-0.24725683,0.1405376,-0.19987069,0.06143867,0.22705163,0.16236305,0.041614156,-0.3052881,-0.042882487,-0.18885116,-0.2684958,0.1373017,-0.10107098,0.022451341,0.15647624,0.11101628,0.20099576,0.06534152,-0.18540324,-0.09378415,0.23078808,-0.23772737,0.16187802,0.1245879,-0.23027974,0.057157535,-0.056592148,0.4776842,-0.15287766,0.07854027,-0.10951213,-0.05353333,-0.2656157,-0.28304592,-0.21179233,0.16179109,0.051924296,-0.19260202,-0.029272065,-0.052375488,0.03454228,0.004669597,0.0788182,0.28045887,0.12271095,0.20222309,-0.20295471,0.038144104,-0.053573977,0.06679272,-0.20755555,0.14903602,-0.35721552
