candidate,dim_0,dim_1,dim_2,dim_3,dim_4,dim_5,dim_6,dim_7,dim_8,dim_9,dim_10,dim_11,dim_12,dim_13,dim_14,dim_15,dim_16,dim_17,dim_18,dim_19,dim_20,dim_21,dim_22,dim_23,dim_24,dim_25,dim_26,dim_27,dim_28,dim_29,dim_30,dim_31,dim_32,dim_33,dim_34,dim_35,dim_36,dim_37,dim_38,dim_39,dim_40,dim_41,dim_42,dim_43,dim_44,dim_45,dim_46,dim_47,dim_48,dim_49,dim_50,dim_51,dim_52,dim_53,dim_54,dim_55,dim_56,dim_57,dim_58,dim_59,dim_60,dim_61,dim_62,dim_63,dim_64,dim_65,dim_66,dim_67,dim_68,dim_69,dim_70,dim_71,dim_72,dim_73,dim_74,dim_75,dim_76,dim_77,dim_78,dim_79,dim_80,dim_81,dim_82,dim_83,dim_84,dim_85,dim_86,dim_87,dim_88,dim_89,dim_90,dim_91,dim_92,dim_93,dim_94,dim_95,dim_96,dim_97,dim_98,dim_99,dim_100,dim_101,dim_102,dim_103,dim_104,dim_105,dim_106,dim_107,dim_108,dim_109,dim_110,dim_111,dim_112,dim_113,dim_114,dim_115,dim_116,dim_117,dim_118,dim_119,dim_120,dim_121,dim_122,dim_123,dim_124,dim_125,dim_126,dim_127,dim_128,dim_129,dim_130,dim_131,dim_132,dim_133,dim_134,dim_135,dim_136,dim_137,dim_138,dim_139,dim_140,dim_141,dim_142,dim_143,dim_144,dim_145,dim_146,dim_147,dim_148,dim_149,dim_150,dim_151,dim_152,dim_153,dim_154,dim_155,dim_156,dim_157,dim_158,dim_159,dim_160,dim_161,dim_162,dim_163,dim_164,dim_165,dim_166,dim_167,dim_168,dim_169,dim_170,dim_171,dim_172,dim_173,dim_174,dim_175,dim_176,dim_177,dim_178,dim_179,dim_180,dim_181,dim_182,dim_183,dim_184,dim_185,dim_186,dim_187,dim_188,dim_189,dim_190,dim_191,dim_192,dim_193,dim_194,dim_195,dim_196,dim_197,dim_198,dim_199,dim_200,dim_201,dim_202,dim_203,dim_204,dim_205,dim_206,dim_207,dim_208,dim_209,dim_210,dim_211,dim_212,dim_213,dim_214,dim_215,dim_216,dim_217,dim_218,dim_219,dim_220,dim_221,dim_222,dim_223,dim_224,dim_225,dim_226,dim_227,dim_228,dim_229,dim_230,dim_231,dim_232,dim_233,dim_234,dim_235,dim_236,dim_237,dim_238,dim_239,dim_240,dim_241,dim_242,dim_243,dim_244,dim_245,dim_246,dim_247,dim_248,dim_249,dim_250,dim_251,dim_252,dim_253,dim_254,dim_255,dim_256,dim_257,dim_258,dim_259,dim_260,dim_261,dim_262,dim_263,dim_264,dim_265,dim_266,dim_267,dim_268,dim_269,dim_270,dim_271,dim_272,dim_273,dim_274,dim_275,dim_276,dim_277,dim_278,dim_279,dim_280,dim_281,dim_282,dim_283,dim_284,dim_285,dim_286,dim_287,dim_288,dim_289,dim_290,dim_291,dim_292,dim_293,dim_294,dim_295,dim_296,dim_297,dim_298,dim_299,dim_300,dim_301,dim_302,dim_303,dim_304,dim_305,dim_306,dim_307,dim_308,dim_309,dim_310,dim_311,dim_312,dim_313,dim_314,dim_315,dim_316,dim_317,dim_318,dim_319,dim_320,dim_321,dim_322,dim_323,dim_324,dim_325,dim_326,dim_327,dim_328,dim_329,dim_330,dim_331,dim_332,dim_333,dim_334,dim_335,dim_336,dim_337,dim_338,dim_339,dim_340,dim_341,dim_342,dim_343,dim_344,dim_345,dim_346,dim_347,dim_348,dim_349,dim_350,dim_351,dim_352,dim_353,dim_354,dim_355,dim_356,dim_357,dim_358,dim_359,dim_360,dim_361,dim_362,dim_363,dim_364,dim_365,dim_366,dim_367,dim_368,dim_369,dim_370,dim_371,dim_372,dim_373,dim_374,dim_375,dim_376,dim_377,dim_378,dim_379,dim_380,dim_381,dim_382,dim_383
artes,-0.010711499489843845,0.006818638648837805,-0.0006766084698028862,-0.005936369765549898,0.08074951171875,0.00660317949950695,-0.04956289008259773,0.009337352588772774,-0.0029221803415566683,0.05011887103319168,0.03629600629210472,0.05253111571073532,0.010770419612526894,0.0027870668563991785,0.02797055058181286,-0.0004972373717464507,-0.041376590728759766,-0.028932783752679825,-0.013610218651592731,0.05394938960671425,0.029706377536058426,-0.04952424764633179,-0.03824738413095474,0.005759862717241049,0.027034789323806763,-0.013950983993709087,0.012383800931274891,-0.032951995730400085,0.006763115059584379,-0.048244401812553406,0.0037146355025470257,-0.025580035522580147,0.027218494564294815,0.038241829723119736,0.004801714792847633,-0.004602915607392788,0.08483514934778214,-0.018690146505832672,0.05177120491862297,0.030865369364619255,-0.013809229247272015,-0.0391434021294117,0.001626769546419382,0.007292567286640406,-0.00722564198076725,-0.016276465728878975,0.04242284223437309,-0.003487247508019209,-0.08734599500894547,-0.03774986043572426,0.04293381795287132,-0.017309702932834625,-0.017364492639899254,0.011722495779395103,-0.003245934145525098,-0.002477755304425955,0.0478663444519043,-0.014881535433232784,0.0032926269341260195,-0.0032663701567798853,0.02267328090965748,0.008614099584519863,-0.005567869637161493,-0.021426191553473473,0.03364624083042145,-0.024201175197958946,0.011002173647284508,0.043234165757894516,-0.0381990447640419,0.07648418098688126,0.03700188547372818,-0.019850241020321846,-0.017265236005187035,-0.02225678786635399,0.0009118411689996719,-0.017861485481262207,0.02718915231525898,0.06857508420944214,0.04948880150914192,-0.00014368290430866182,0.055024243891239166,0.055245351046323776,-0.013343637809157372,-0.012835304252803326,-0.06376878917217255,0.008530541323125362,0.0038886016700416803,0.013257516548037529,0.04592736065387726,-0.046330176293849945,-0.005108910147100687,0.050317004323005676,0.07517317682504654,0.002903912914916873,0.06372575461864471,0.04023567959666252,-0.0051385811530053616,-0.017325716093182564,-0.012647179886698723,0.010908090509474277,-0.02192225679755211,0.05841781944036484,-0.009910930879414082,-0.054721832275390625,-0.00021870767523068935,0.006296924781054258,-0.04653244838118553,-0.022773530334234238,0.00218797754496336,-0.001165911671705544,0.010463147424161434,-0.002745926147326827,-0.06140429526567459,0.003935123328119516,-0.013670315034687519,-0.024336300790309906,0.011652073822915554,0.007230598479509354,-0.03596142306923866,-0.002428948413580656,0.020851530134677887,-0.04046451672911644,-0.0008173961541615427,-0.03266071528196335,0.06377648562192917,0.02540600672364235,-0.03868445008993149,-0.0028944285586476326,-0.02677822671830654,-0.04348718747496605,-0.020699914544820786,-0.031175978481769562,-0.05294397845864296,0.0029090940952301025,0.018660834059119225,-0.012686819769442081,-0.009725616313517094,0.003311990527436137,0.00027544438489712775,0.04940715804696083,0.0282596442848444,0.08666975051164627,0.07772307097911835,0.028607238084077835,-0.002144362311810255,0.01971738040447235,0.07099698483943939,0.010435356758534908,0.02480970323085785,0.016206994652748108,0.034535810351371765,0.0013719290727749467,0.05203773081302643,-0.01716073974967003,-0.015646742656826973,-0.026675818488001823,-0.005620209965854883,0.0005653626285493374,0.03816423937678337,0.0529169961810112,-0.03309723734855652,0.038813576102256775,-0.0011795660248026252,0.009640587493777275,0.002330225193873048,-0.014436389319598675,-0.05286353826522827,-0.0043183607049286366,0.011929537169635296,-0.0021552995312958956,0.02418782375752926,0.026158610358834267,0.028127290308475494,-0.017784498631954193,0.05597991868853569,-0.02329656295478344,-0.05690225958824158,-0.002162336139008403,-0.038911476731300354,-0.010067117400467396,0.012738716788589954,-0.07525957375764847,0.017711861059069633,-0.02836356684565544,-0.046064719557762146,0.005050836130976677,-0.005990559700876474,-0.03170541673898697,-0.01385628804564476,-0.03396672382950783,-0.01792971044778824,0.058487359434366226,0.037211958318948746,0.04284851998090744,-0.029410438612103462,-0.0324278399348259,0.043759338557720184,0.034507866948843,0.031106412410736084,-0.015399554744362831,-0.11873140186071396,0.033246733248233795,-0.03676149994134903,-0.010305169969797134,0.025883108377456665,-0.0026060608215630054,0.05251507833600044,-0.03431148827075958,-0.03481754660606384,-0.006872796919196844,0.030586717650294304,0.018806487321853638,0.010924008674919605,0.002291889162734151,0.02691052295267582,0.01314852386713028,0.010681990534067154,0.022234372794628143,-0.0690198689699173,0.0026336004957556725,0.003770651761442423,0.045263875275850296,0.023151351138949394,-0.03337301313877106,-0.067850761115551,0.006847040262073278,-0.04550419747829437,0.040339238941669464,-0.0047702365554869175,0.015791617333889008,-0.06630176305770874,-0.0852268785238266,-0.021858690306544304,0.027477765455842018,-0.07496333122253418,-0.03942565619945526,0.07753431051969528,0.025707168504595757,-0.05658767372369766,-0.03603016212582588,0.023345306515693665,-0.0342799536883831,-0.03204737603664398,-0.028352314606308937,0.011231707409024239,0.021995486691594124,-0.021405620500445366,0.0435207337141037,-0.017384761944413185,0.025321640074253082,-0.06423844397068024,-0.1156458854675293,-0.004998383577913046,-0.04229896143078804,-0.021609921008348465,0.001874491572380066,-0.040775831788778305,-0.0015067079802975059,-0.022233087569475174,0.016348719596862793,-0.023189492523670197,-0.01947060413658619,0.013912925496697426,0.07606322318315506,0.031304024159908295,-0.026430346071720123,0.0005490200128406286,0.004908990580588579,-0.037709079682826996,0.007432630751281977,0.007376899942755699,-0.016652124002575874,0.0043154554441571236,-0.0234462171792984,0.0497664250433445,-0.016644809395074844,-0.001465224428102374,-0.03611543029546738,0.004187984392046928,0.015237334184348583,0.04470471292734146,0.01599769853055477,0.0025992710143327713,0.014797166921198368,0.005953578744083643,0.017513634636998177,0.0071000526659190655,0.010960250161588192,0.004299212247133255,0.010769117623567581,-0.006479294039309025,0.012884457595646381,0.07406238466501236,0.0033118021674454212,0.029357245191931725,-0.03148568421602249,-0.04494428634643555,0.021438777446746826,-0.03357302024960518,0.024862084537744522,0.04728884994983673,-0.004350163508206606,-0.014556988142430782,-0.0017116062808781862,0.005343208089470863,0.011312470771372318,0.03598795831203461,-0.011053649708628654,-0.010940510779619217,-0.003811262547969818,-0.0021028381306678057,-0.06953814625740051,0.036370642483234406,0.029422229155898094,-0.021884579211473465,-0.026890238747000694,-0.014050431549549103,-0.020034868270158768,0.030125746503472328,-0.04969273880124092,0.01798020489513874,0.019908102229237556,-0.0011595315299928188,0.012259145267307758,-0.03604964166879654,-0.0061397976242005825,0.01945948414504528,-0.03931741788983345,0.029580941423773766,0.018949663266539574,-0.009225119836628437,0.027873199433088303,0.014593751169741154,-0.04627873748540878,-0.03160688653588295,0.03370048478245735,-0.014981607906520367,0.05816372111439705,-0.03133160620927811,0.004079901613295078,0.04648560285568237,0.01437185425311327,-0.041964318603277206,-0.0041109719313681126,-0.023761432617902756,0.01101643592119217,-0.009610362350940704,0.004252724349498749,-0.035107072442770004,0.015835057944059372,-0.03369729220867157,-0.019674500450491905,-0.024297818541526794,-0.056716226041316986,-0.01705172471702099,0.0007138196961022913,-0.030101507902145386,0.012808212079107761,-0.010799921117722988,-0.07834532111883163,0.030513228848576546,0.026225663721561432,-0.0009389714687131345,0.019581234082579613,-0.008880670182406902,-0.04958202317357063,-0.04997073858976364,0.021533939987421036,0.0164340827614069,0.0031888349913060665,0.022034000605344772,-0.01118147000670433,0.0013894763542339206,0.010662187822163105,0.037321943789720535,-0.013848819769918919,-0.005357449408620596,0.04773914813995361,-0.027700424194335938,0.005467875394970179,0.0034932864364236593,-0.02107287384569645,0.055520836263895035,0.005361542571336031
harold,0.00021276237384881824,0.0019480654736980796,-0.014032110571861267,-0.00489159906283021,0.08641233295202255,0.03289273381233215,-0.06323316693305969,-0.0030812753830105066,0.008496246300637722,0.07113425433635712,0.04870050027966499,0.052280399948358536,0.005900037009268999,0.028368355706334114,0.045378223061561584,0.004083810839802027,-0.033167265355587006,-0.020559579133987427,0.0005306018865667284,0.05288634076714516,0.004163985140621662,-0.03511638939380646,-0.010084380395710468,0.0009596777381375432,-0.00046891928650438786,-0.012705490924417973,-0.0010785345220938325,-0.04518595337867737,0.00013658539683092386,-0.046600475907325745,0.021959105506539345,-0.023095790296792984,0.038586556911468506,0.02131444588303566,-0.008034574799239635,0.006532077211886644,0.06898517906665802,-0.00028619810473173857,0.01338909100741148,0.03978358954191208,-0.0327933132648468,-0.03373129293322563,0.003238111501559615,0.018824763596057892,-0.0074169994331896305,-0.03126620128750801,0.006575091741979122,0.001676187850534916,-0.09385702759027481,-0.022078197449445724,0.013873744755983353,-0.035922881215810776,-0.03371484577655792,0.0326748751103878,-0.011849143542349339,-0.0040139020420610905,0.04081449657678604,-0.013472513295710087,-0.0119642848148942,0.0014110755873844028,0.0427074134349823,0.0009641579817980528,0.010988172143697739,0.00454979483038187,0.004456843715161085,-0.007528685964643955,0.00046871716040186584,0.05013316869735718,-0.015442284755408764,0.05642227455973625,0.0242665633559227,-0.01165050733834505,0.009680571034550667,-0.01632452942430973,0.01686408929526806,-0.008611722849309444,0.017598874866962433,0.05336964875459671,0.07267030328512192,-0.00731270806863904,0.06604526191949844,0.03654856979846954,-0.017222372815012932,-0.02088940143585205,-0.05229761078953743,-0.006362863350659609,-0.015478710643947124,0.018527712672948837,0.025917978957295418,-0.050621870905160904,-0.013202769681811333,0.06342761963605881,0.0868624895811081,-6.111805123509839e-05,0.034569863229990005,0.05930820479989052,-0.03082621842622757,-0.03152049705386162,-0.018158555030822754,0.02301890216767788,-0.027885152027010918,0.0447436161339283,-0.005135154351592064,-0.06364073604345322,0.012521568685770035,0.01325759943574667,-0.02626088447868824,-0.046306997537612915,0.00991885270923376,0.0163109190762043,0.002471340587362647,0.0003422458248678595,-0.059054866433143616,0.0010915134334936738,-0.012686804868280888,-0.02387644536793232,0.01852858066558838,0.009563966654241085,-0.0018891090294346213,0.0033836497459560633,0.017329812049865723,-0.05156103894114494,-0.0031187108252197504,-0.059311311691999435,0.0928349569439888,0.005908773746341467,-0.029515789821743965,0.018621984869241714,-0.004397579934448004,-0.026783883571624756,0.006104941014200449,-0.016401205211877823,-0.02862277813255787,0.003651534439995885,0.0037750843912363052,-0.03912823647260666,-0.00222807377576828,-0.010334234684705734,-0.016766373068094254,0.03933107107877731,0.050392746925354004,0.0924883782863617,0.09023676067590714,0.029577774927020073,-0.00926818698644638,0.024432864040136337,0.04337085038423538,0.007746124640107155,0.037178993225097656,-0.00694599375128746,0.05168623477220535,-0.004907464142888784,0.06544949114322662,-0.007149838842451572,-0.0010068973060697317,-0.024434350430965424,0.015024600550532341,-0.0030490730423480272,0.03301010653376579,0.0529751293361187,-0.043394580483436584,0.03819502145051956,0.015046338550746441,-0.0010873520513996482,-0.011696122586727142,-0.035185426473617554,-0.043924931436777115,-0.023061897605657578,0.017431246116757393,-0.0011459182715043426,0.031681593507528305,-0.008626772090792656,0.04920626059174538,-0.011215354315936565,0.06591863185167313,-0.026840858161449432,-0.06942871958017349,0.0019777778070420027,-0.030167270451784134,-0.019365346059203148,0.00601588049903512,-0.07887919992208481,0.008107541128993034,-0.03638601675629616,-0.04072200506925583,0.013908947817981243,-0.013928540050983429,-0.0183519646525383,-0.0004038514744024724,-0.038728173822164536,-0.025201981887221336,0.02832944504916668,0.06208197772502899,0.03688473626971245,-0.021662848070263863,-0.04215366020798683,0.03314192220568657,0.01571865752339363,0.019238928332924843,0.0024151026736944914,-0.1214483454823494,0.021808644756674767,-0.043005507439374924,-0.0035806535743176937,0.025439171120524406,-0.006370979826897383,0.07383595407009125,-0.0463322177529335,-0.03353531286120415,-0.0019337210105732083,0.02799762412905693,0.04522017017006874,0.026909278705716133,-0.008955273777246475,0.024088652804493904,0.011853452771902084,0.0031270920298993587,0.04189327731728554,-0.05843282490968704,0.03650233894586563,0.0012491685338318348,0.04788021743297577,0.026876669377088547,-0.056552059948444366,-0.08461104333400726,0.008778782561421394,-0.04270656034350395,0.048060573637485504,-0.00643074931576848,0.0030699868220835924,-0.07430423051118851,-0.084967702627182,0.003212430514395237,0.03894362598657608,-0.09394258260726929,-0.06025535240769386,0.08397593349218369,0.018902400508522987,-0.06313742697238922,-0.02185557596385479,0.007564687170088291,-0.04304293170571327,-0.03416678309440613,-0.032562900334596634,0.010167033411562443,0.04508376494050026,-0.02392652817070484,0.051563799381256104,-0.026245519518852234,0.04619920998811722,-0.04177965968847275,-0.12573091685771942,-0.005307849496603012,-0.0516781210899353,-0.01953275129199028,0.008986224420368671,-0.05245232209563255,-0.0182935930788517,-0.020773500204086304,0.049800604581832886,-0.0027030485216528177,-0.03699500486254692,-0.0030520176514983177,0.08875301480293274,0.04177257791161537,-0.027891559526324272,-0.05159076303243637,-0.0005391939193941653,-0.034008316695690155,0.011857058852910995,0.0012252453016117215,-0.00680993078276515,-0.015057477168738842,-0.02489868924021721,0.05256522819399834,-0.004730735439807177,-0.03153204917907715,-0.027555951848626137,0.012945879250764847,0.030391529202461243,0.02981291338801384,0.0033707250840961933,-0.0018769802991300821,0.00695428904145956,-0.009879235178232193,0.02921333909034729,-0.017156541347503662,0.006376854609698057,0.023420093581080437,0.023714719340205193,-0.0021952041424810886,0.017593322321772575,0.047886017709970474,0.005054905544966459,0.03504030406475067,-0.024839239194989204,-0.052449069917201996,0.008507185615599155,-0.013617385178804398,0.025848669931292534,0.045265574008226395,-0.01038165483623743,-0.018901577219367027,-0.002749261213466525,0.006090777460485697,-0.004661437589675188,0.05272823944687843,-0.011828127317130566,0.0042603206820786,-0.008322334848344326,0.0005657125730067492,-0.09365220367908478,0.03199337050318718,0.045427996665239334,-0.01606348715722561,-0.018603460863232613,-0.028002144768834114,-0.032307013869285583,0.023334810510277748,-0.06873657554388046,0.029604654759168625,0.029744012281298637,-0.025096246972680092,0.011618785560131073,-0.028719162568449974,0.0024610974360257387,0.002016447251662612,-0.023339390754699707,0.012783952057361603,0.01632409170269966,-0.01275468710809946,0.0416310578584671,0.021900177001953125,-0.027915962040424347,-0.003403398906812072,0.03252726420760155,-0.02406558021903038,0.05225561559200287,-0.03307107463479042,0.0003898479335475713,0.0659513920545578,0.038474246859550476,-0.051072847098112106,-0.016233470290899277,-0.008563692681491375,-0.005556716583669186,-0.010680798441171646,0.03379504755139351,-0.03987221419811249,-0.00027322530513629317,-0.04197893291711807,-0.02640060894191265,-0.03048022836446762,-0.06045826897025108,-0.005736580118536949,-0.008524546399712563,-0.014892318286001682,0.020139656960964203,-0.005637981463223696,-0.08296611160039902,0.005459568463265896,0.039086438715457916,0.005446824245154858,0.03631596639752388,-0.01998860016465187,-0.047215547412633896,-0.0455472469329834,0.018061164766550064,0.006405646447092295,0.0057145655155181885,-0.007207403425127268,-0.022768229246139526,0.0046858228743076324,0.006222665775567293,0.04604697972536087,-0.007186307106167078,0.002900707069784403,0.0417373888194561,-0.04212803766131401,0.014097536914050579,0.012793128378689289,-0.007024036254733801,0.04021097719669342,0.020544666796922684
jara,-0.007019420154392719,0.017001565545797348,-0.0289914608001709,0.000271191936917603,0.09388292580842972,0.04976966232061386,-0.08567053824663162,-0.03899919241666794,0.005475636105984449,0.08217848837375641,0.06448744237422943,0.06354618072509766,0.006350059527903795,0.01220934558659792,0.04373708739876747,0.007454841397702694,-0.04104384407401085,-0.014314639382064342,-0.004129243083298206,0.06549005955457687,0.0011968446196988225,-0.037707146257162094,-0.013896333985030651,-0.005275092553347349,0.03030344657599926,-0.023219870403409004,0.011067255400121212,-0.04816741868853569,0.006364657077938318,-0.059900857508182526,0.033808063715696335,-0.018053531646728516,0.026802707463502884,0.0429074652493,0.004874312784522772,-0.003788131522014737,0.08888427168130875,0.0032645941246300936,0.027885859832167625,0.04779643192887306,-0.02213158644735813,-0.0397489033639431,-0.005279215052723885,-0.0016122127417474985,-0.010286776348948479,-0.020930727943778038,0.024059364572167397,-0.004892940167337656,-0.10148165374994278,-0.0234589371830225,0.004252312239259481,-0.04127359762787819,-0.030261214822530746,0.03999840095639229,-0.0008928776951506734,-0.0047010756097733974,0.04811056703329086,-0.01680067554116249,-0.018651103600859642,-0.020971763879060745,0.04640702158212662,-1.1044367965951096e-05,0.029708148911595345,0.0016572788590565324,0.009355400688946247,-0.023306364193558693,-0.005601020064204931,0.04634338989853859,-0.03288465738296509,0.06518863886594772,0.018540825694799423,-0.008966157212853432,-0.006941316649317741,-0.034199994057416916,0.017948895692825317,-0.020099299028515816,0.032905951142311096,0.04945475980639458,0.0772550106048584,0.00047710849321447313,0.06758003681898117,0.04137716442346573,-0.021760057657957077,-0.019750693812966347,-0.05916067585349083,-0.010163330473005772,-0.011890283785760403,0.002205705503001809,0.03744982182979584,-0.07657120376825333,-0.023047203198075294,0.0827212706208229,0.10097775608301163,-0.0026440478395670652,0.05191808193922043,0.06331208348274231,-0.0253452155739069,-0.0264851413667202,-0.022518998011946678,0.02113145776093006,-0.036473598331213,0.05013536289334297,-0.00385990715585649,-0.08420571684837341,0.013519790954887867,-0.010681637562811375,-0.03684958070516586,-0.04516573250293732,0.013714432716369629,0.030822105705738068,0.009136241860687733,-0.0035747061483561993,-0.06607804447412491,0.013372051529586315,-0.011256160214543343,-0.04032532125711441,0.011022460646927357,0.001709611969999969,-0.011841912753880024,0.0004238596884533763,0.009982948191463947,-0.03695742040872574,-0.021896013990044594,-0.06844480335712433,0.09946424514055252,0.0018109098309651017,-0.026245111599564552,0.01611931249499321,0.0017785084201022983,-0.02084953896701336,-0.0005380513612180948,-0.01756066456437111,-0.028993714600801468,0.010216738097369671,0.006427946966141462,-0.03986852988600731,-0.0014136838726699352,0.007188327144831419,-0.021623635664582253,0.025629036128520966,0.05288439616560936,0.11012975126504898,0.0732414498925209,0.02067076787352562,-0.016014590859413147,0.02820226550102234,0.06353850662708282,0.017575182020664215,0.04132675379514694,0.004403353668749332,0.05335802957415581,-0.009698347188532352,0.058384720236063004,-0.013647225685417652,-0.0007170861354097724,-0.018016040325164795,0.005447229370474815,-0.00926557369530201,0.03897712379693985,0.07630697637796402,-0.04793279245495796,0.03721761330962181,-0.007745200302451849,-0.009147509932518005,-0.01907815970480442,-0.03549817577004433,-0.0497988797724247,-0.022636892274022102,0.021783433854579926,-0.00659586675465107,0.0406707301735878,-0.009807433001697063,0.06074727699160576,0.00039354281034320593,0.08424408733844757,-0.0283381137996912,-0.07201600074768066,0.004630451090633869,-0.023772526532411575,-0.014378922060132027,0.007835558615624905,-0.09319831430912018,-0.009121345356106758,-0.04962742701172829,-0.05733155459165573,0.02233230508863926,-0.017419425770640373,-0.022406520321965218,-0.018627017736434937,-0.06228417158126831,-0.019881542772054672,0.03196169063448906,0.06828818470239639,0.035528622567653656,-0.03190213069319725,-0.059470634907484055,0.03162737935781479,0.016571080312132835,0.052128180861473083,0.01019483245909214,-0.1377967745065689,0.026234332472085953,-0.037173133343458176,0.005518137011677027,0.030273130163550377,-0.015027237124741077,0.0741032138466835,-0.042828790843486786,-0.03904847428202629,-0.002313902834430337,0.04054831713438034,0.04267815873026848,0.053375083953142166,0.006048834417015314,0.023611323907971382,0.008438450284302235,0.020521046593785286,0.025990622118115425,-0.07060028612613678,0.02086995728313923,0.016818584874272346,0.04674287512898445,0.03837139159440994,-0.055737461894750595,-0.08427868038415909,0.00643568579107523,-0.05429798737168312,0.05683666095137596,0.010929778218269348,-0.000990015803836286,-0.0724230483174324,-0.09590166062116623,0.0013916894095018506,0.06244206801056862,-0.08979427069425583,-0.07007013261318207,0.1015314906835556,0.03543253242969513,-0.07239823788404465,-0.029502023011446,0.019000820815563202,-0.05693585053086281,-0.013890087604522705,-0.03191889449954033,0.02383526600897312,0.048994358628988266,-0.04847715422511101,0.07860226184129715,-0.02467341348528862,0.05849086493253708,-0.06220870092511177,-0.13745242357254028,0.010180981829762459,-0.05955259129405022,-0.036186087876558304,-0.001570467371493578,-0.06084362417459488,-0.004004752263426781,-0.008096571080386639,0.03700655326247215,-0.01086338795721531,-0.04880785569548607,-0.006236000917851925,0.09614507853984833,0.0356452576816082,-0.058387916535139084,-0.059626225382089615,0.0025002053007483482,-0.023757094517350197,0.01812368631362915,0.013073173351585865,-0.0073020365089178085,-0.009441873989999294,-0.019773026928305626,0.06582717597484589,0.01184021309018135,-0.019467774778604507,-0.02031591534614563,0.029815800487995148,0.034550685435533524,0.028864169493317604,-0.004032494034618139,0.0017981290584430099,0.005945833399891853,-0.019594116136431694,0.038562219589948654,0.004939397796988487,0.02306206151843071,0.026909036561846733,0.02061140350997448,-0.005752332042902708,-0.00401208596304059,0.055917441844940186,-0.004870304837822914,0.025939134880900383,-0.03539440780878067,-0.05754208192229271,0.002890043193474412,0.0021776969078928232,0.016070067882537842,0.06921527534723282,0.0004959488869644701,-0.020810209214687347,-2.754110209934879e-05,0.003510736860334873,-0.020324742421507835,0.06079835072159767,-0.02012569084763527,0.00969990249723196,-0.01515112817287445,0.010044440627098083,-0.10057263821363449,0.027476292103528976,0.04305071383714676,-0.04374656826257706,-0.020472394302487373,-0.026400281116366386,-0.027875371277332306,0.03301525488495827,-0.07555685937404633,0.043637946248054504,0.022797945886850357,-0.041495248675346375,-0.00386110320687294,-0.028567975386977196,-0.011867356486618519,0.018317321315407753,-0.022850630804896355,0.02357141301035881,0.011135727167129517,-0.005407551769167185,0.048201967030763626,0.02423333376646042,-0.02636081725358963,-0.01795000582933426,0.043979302048683167,-0.036069151014089584,0.04667248949408531,-0.04046422615647316,-0.005004987586289644,0.06918684393167496,0.027903471142053604,-0.06039534881711006,-0.017599469050765038,-0.006104170810431242,0.0029635110404342413,-0.024346163496375084,0.034592725336551666,-0.028538668528199196,-0.007887603715062141,-0.03624211996793747,-0.032403409481048584,-0.03786228597164154,-0.06079010292887688,-0.010088343173265457,-0.006467032246291637,-0.016883838921785355,0.030794769525527954,0.001761457766406238,-0.09081573784351349,0.009209881536662579,0.0670495331287384,0.0028020828031003475,0.034695010632276535,-0.03924117982387543,-0.06009822338819504,-0.045376718044281006,0.02011389657855034,0.014363319613039494,0.0016594377811998129,-0.002825201954692602,-0.016938423737883568,0.016607211902737617,0.010930030606687069,0.06028902903199196,-0.011817635037004948,-0.011830879375338554,0.035149965435266495,-0.05258624255657196,0.009581716731190681,0.026699872687458992,-0.01647822931408882,0.04313947260379791,0.023490434512495995
kaiser,-0.00431941170245409,0.013012816198170185,-0.017048364505171776,-0.00723509956151247,0.06288646906614304,0.02216223068535328,-0.04344728961586952,0.011484010145068169,-0.008364234119653702,0.057945169508457184,0.038711778819561005,0.049974847584962845,0.012992546893656254,0.007457353640347719,0.016985217109322548,0.008675516583025455,-0.032112929970026016,-0.01878027804195881,-0.0024209253024309874,0.05677207559347153,0.03234747797250748,-0.05095994472503662,-0.025261756032705307,-0.010045187547802925,0.012279698625206947,-0.0054603819735348225,-0.004208075813949108,-0.0398462675511837,0.004530906677246094,-0.05708960443735123,0.011557064950466156,-0.013888088054955006,0.0188660379499197,0.020273743197321892,0.0040934220887720585,-0.005340780131518841,0.06122515723109245,-0.0021858355030417442,0.02110474184155464,0.0354611761868,-0.019500305876135826,-0.02719591185450554,-0.010734625160694122,0.01172623224556446,-0.010147727094590664,-0.03196431323885918,0.016259247437119484,0.00011629389337031171,-0.1040477529168129,-0.02912677638232708,0.018709108233451843,-0.035958267748355865,-0.019787145778536797,0.01785700023174286,-0.019092824310064316,-0.006820680107921362,0.04406212270259857,0.001693913945928216,-0.015270917676389217,-0.004312780685722828,0.02523779682815075,-0.0030402978882193565,-0.004725300241261721,-0.004147679544985294,0.024869035929441452,0.00841884221881628,0.005331014283001423,0.02676369808614254,-0.024860486388206482,0.053102266043424606,0.02013394609093666,-0.025170044973492622,-0.01836947165429592,-0.033837638795375824,0.019556336104869843,-0.015026205219328403,0.018513506278395653,0.0700400099158287,0.06571542471647263,-0.01853926293551922,0.05877009034156799,0.03240082785487175,-0.020161036401987076,-0.013572287745773792,-0.0596252977848053,-0.0010218353709205985,0.002793604973703623,0.015425398014485836,0.03604460507631302,-0.04108818620443344,0.009810548275709152,0.04226986691355705,0.08251423388719559,-0.005439291708171368,0.03246753662824631,0.04021711274981499,-0.017975499853491783,-0.028066128492355347,0.002217878820374608,0.0354747548699379,-0.014065294526517391,0.05790340527892113,-0.01865088753402233,-0.04947153478860855,0.007891790941357613,0.013377056457102299,-0.020939907059073448,-0.04060054570436478,0.013970745727419853,0.0034777685068547726,-0.00021693225426133722,0.01268001925200224,-0.05344255268573761,-0.009363600984215736,-0.01942196488380432,-0.007153421174734831,0.004286527168005705,0.02504914253950119,0.013363843783736229,-0.0019193076295778155,0.010738790966570377,-0.03278132900595665,0.01457399781793356,-0.041536178439855576,0.05643220245838165,0.01649288274347782,-0.034221723675727844,0.006224629934877157,-0.027155576273798943,-0.045653726905584335,-0.0012653522426262498,-0.02835053764283657,-0.049848321825265884,0.000553150603082031,0.011922630481421947,-0.017906878143548965,-0.00580249959602952,-0.015464430674910545,-0.0067560407333076,0.04984816163778305,0.033169735223054886,0.07844090461730957,0.0846741572022438,0.03958457335829735,1.638544381421525e-05,0.04642878845334053,0.06755371391773224,0.009268698282539845,0.038922082632780075,0.0025478932075202465,0.04198480024933815,-0.010499963536858559,0.06792555004358292,-0.019918136298656464,-0.0067785331048071384,-0.020826032385230064,0.0076060122810304165,-0.0019504617666825652,0.03425878658890724,0.046509016305208206,-0.038654353469610214,0.029196685180068016,0.005007829982787371,0.010069812647998333,-0.008427277207374573,-0.030315035954117775,-0.034807465970516205,-0.036411210894584656,-0.0018382049165666103,0.0007364159682765603,0.027950691059231758,-0.0007982953102327883,0.030173342674970627,-0.02156536653637886,0.0469488650560379,-0.03181040287017822,-0.05377475172281265,0.004270820412784815,-0.03671538457274437,-0.025598708540201187,0.013293709605932236,-0.06803223490715027,0.0014752709539607167,-0.03365366533398628,-0.04028235748410225,0.00243023200891912,-0.016410842537879944,-0.016704879701137543,-0.008355115540325642,-0.020286479964852333,-0.04355307295918465,0.03267432004213333,0.05016829073429108,0.040648575872182846,-0.028410181403160095,-0.0398680679500103,0.05504221096634865,0.011091426014900208,0.01903579570353031,-0.00022594034089706838,-0.10898830741643906,0.024698590859770775,-0.03703904151916504,-0.014582367613911629,-0.00010955625475617126,-0.005585200153291225,0.05452296510338783,-0.03914860263466835,-0.027553638443350792,0.006060942076146603,0.025769686326384544,0.02362626977264881,0.02178521454334259,0.0020938366651535034,0.03622148931026459,0.014541436918079853,-0.008515642024576664,0.02675119787454605,-0.05893777683377266,0.013555997982621193,-0.0007466971874237061,0.054018326103687286,0.03911862522363663,-0.051250942051410675,-0.07113199681043625,0.007505938410758972,-0.04717257618904114,0.03797318413853645,-0.003452424192801118,0.006706667132675648,-0.06318952143192291,-0.08731673657894135,0.011974758468568325,0.029491249471902847,-0.09130793809890747,-0.044201985001564026,0.07812444865703583,0.027327699586749077,-0.06032978743314743,-0.029344428330659866,-0.004257358610630035,-0.044704657047986984,-0.02390250377357006,-0.03235839679837227,0.01121605560183525,0.02446383237838745,-0.03301561623811722,0.049638256430625916,-0.007123694289475679,0.027526775375008583,-0.060319527983665466,-0.11126819998025894,0.005539748352020979,-0.022395985201001167,-0.018859954550862312,0.00180451525375247,-0.048939984291791916,-0.003772506956011057,-0.03201385959982872,0.013028401881456375,0.003806882072240114,-0.02823144756257534,0.0007761890883557498,0.08301810920238495,0.03390975669026375,-0.024199336767196655,-0.014913661405444145,0.0067018368281424046,-0.020531069487333298,0.0017073956551030278,-0.0006643407396040857,-0.021893691271543503,0.0022867578081786633,-0.019815461710095406,0.04771257936954498,-0.004419439937919378,-0.01266824547201395,-0.0294813122600317,0.004783714655786753,0.03393579646945,0.03686259314417839,0.01716688647866249,0.012382022105157375,0.020876556634902954,0.006002163514494896,0.03331514820456505,-0.0006468442734330893,0.012816519476473331,0.003030727617442608,0.015441558323800564,-0.0002295676968060434,0.01003578957170248,0.04608738422393799,-0.00847109779715538,0.02762487530708313,-0.025256209075450897,-0.04533882811665535,-0.004584163893014193,-0.019630232825875282,0.025539888069033623,0.04055967181921005,-0.00872605200856924,-0.022558778524398804,0.004383969120681286,0.012373768724501133,0.007294064853340387,0.0487968847155571,-0.011454002931714058,0.0006780144176445901,-0.015880456194281578,0.0011785683454945683,-0.09133339673280716,0.021959414705634117,0.031140344217419624,-0.01224406436085701,-0.01889106258749962,-0.023279208689928055,-0.006087029818445444,0.020088687539100647,-0.06497182697057724,0.017819281667470932,0.02164398320019245,-0.020444605499505997,0.0207962766289711,-0.015909070149064064,-0.0054899039678275585,0.00511572603136301,-0.015584994107484818,0.01211755070835352,0.0044227237813174725,0.007169655058532953,0.03139863908290863,0.009728053584694862,-0.020355582237243652,-0.009762097150087357,0.02041556127369404,-0.024750949814915657,0.05717203766107559,-0.03643514961004257,0.0093853659927845,0.0746719241142273,0.03167472034692764,-0.04741932079195976,-0.013532905839383602,-0.015862546861171722,-0.00460760947316885,0.01077166385948658,0.04724794253706932,-0.03390077129006386,0.005592816509306431,-0.02150924690067768,-0.002637055702507496,-0.013853773474693298,-0.039335768669843674,-0.017082905396819115,0.0014510340988636017,-0.016973024234175682,0.016739213839173317,-0.013282970525324345,-0.05685381218791008,0.010375398211181164,0.025616122409701347,0.005076911300420761,0.03617701306939125,-0.007238469552248716,-0.0405224971473217,-0.05048832297325134,0.010875578969717026,0.02898750640451908,0.001191148767247796,0.002439699601382017,-0.019824322313070297,0.0018367719603702426,0.004510076716542244,0.03450608253479004,0.002845400245860219,0.009435848332941532,0.034257806837558746,-0.04047759994864464,0.007738640997558832,0.004806841257959604,-0.013221921399235725,0.0404825322329998,0.015675926581025124
kast,-0.0115769999101758,-0.004965534899383783,-0.010891221463680267,0.004959109239280224,0.09072893857955933,0.02891607955098152,-0.06671738624572754,-0.008247897028923035,0.019080623984336853,0.06758057326078415,0.05815953016281128,0.073716901242733,0.0059922486543655396,0.02058614417910576,0.027256501838564873,0.005774664226919413,-0.0416247732937336,-0.019830120727419853,-0.004728330299258232,0.049804579466581345,-0.006211964413523674,-0.025123313069343567,-0.008098402060568333,0.00445468770340085,0.018461497500538826,0.0012305331183597445,-0.005244632251560688,-0.04585100710391998,-0.011472398415207863,-0.056300222873687744,0.012770339846611023,-0.031533677130937576,0.03959023952484131,0.030551603063941002,0.008449019864201546,0.004683372098952532,0.0789310410618782,0.01145056914538145,0.01967417262494564,0.031545910984277725,-0.028270117938518524,-0.023492753505706787,-0.010759599506855011,0.013092967681586742,-0.006888870615512133,-0.03878367319703102,0.008529945276677608,-0.0072766682133078575,-0.08036094903945923,-0.024716084823012352,0.011023045517504215,-0.021830489858984947,-0.02396218664944172,0.037811778485774994,-0.001267228159122169,-0.010558674111962318,0.05049343407154083,-0.0056329891085624695,-0.011286715045571327,0.006069420836865902,0.0416865348815918,0.00577416131272912,0.011993908323347569,-0.003326740115880966,0.00796558242291212,-0.017359992489218712,0.0034803482703864574,0.03844034671783447,-0.013032210990786552,0.07393716275691986,0.013882738538086414,-0.003812632290646434,0.004534352570772171,-0.01753413677215576,0.0057502007111907005,-0.014139143750071526,0.018452126532793045,0.05786178261041641,0.07113108038902283,-0.008724630810320377,0.06466540694236755,0.03335024416446686,-0.019187336787581444,-0.01844586804509163,-0.06689963489770889,-0.007158747408539057,-0.01450493186712265,0.014423049986362457,0.033200763165950775,-0.06306175887584686,-0.008636405691504478,0.05399269238114357,0.09394717216491699,0.006571062374860048,0.043499015271663666,0.05396474152803421,-0.018464934080839157,-0.014748607762157917,-0.019316919147968292,0.021952012553811073,-0.028695497661828995,0.04198842868208885,0.0036116186529397964,-0.06928545981645584,0.010994553565979004,0.0008981502032838762,-0.02629973366856575,-0.05337760969996452,0.00017616261902730912,0.007824837230145931,0.0158931165933609,-0.011513342149555683,-0.05341288074851036,0.013833991251885891,-0.0007473814766854048,-0.031962811946868896,0.007565613370388746,0.006351557560265064,-0.018238356336951256,0.017972392961382866,0.019968222826719284,-0.038825809955596924,-0.008010302670300007,-0.06299254298210144,0.07861275970935822,-0.008031442761421204,-0.03559069707989693,0.019877994433045387,0.006073188502341509,-0.02054392173886299,-0.007408346049487591,-0.01371387206017971,-0.0315072201192379,-0.005918507464230061,0.0022073343861848116,-0.023055708035826683,-0.0016992117743939161,-0.005940807983279228,-0.016309810802340508,0.024483900517225266,0.04637801647186279,0.08420302718877792,0.08227510005235672,0.021697068586945534,-0.01886514388024807,0.028692640364170074,0.052814632654190063,0.012136906385421753,0.03128037974238396,-0.0038756788708269596,0.04321397840976715,-0.011704330332577229,0.05579175055027008,-0.010009309276938438,-0.00892082042992115,-0.016562651842832565,0.006839284207671881,-0.0026728524826467037,0.029686398804187775,0.07408040761947632,-0.03825823962688446,0.03671891987323761,0.007108625955879688,-0.007400318514555693,0.0049850489012897015,-0.02236325293779373,-0.04493109881877899,-0.0240681953728199,0.017115209251642227,0.002830140059813857,0.033037252724170685,-0.0030037586111575365,0.05414371192455292,-0.02487984672188759,0.07195452600717545,-0.023169390857219696,-0.07530967146158218,0.003809010609984398,-0.02729012444615364,-0.004546952899545431,0.012999123893678188,-0.08462394028902054,-0.018497193232178688,-0.030454963445663452,-0.04249381273984909,0.016421329230070114,-0.016410458832979202,-0.018667206168174744,0.0011075600050389767,-0.04547302797436714,-0.01752096228301525,0.027974305674433708,0.06490473449230194,0.02817445620894432,-0.024490732699632645,-0.039487894624471664,0.01487903855741024,0.03854210674762726,0.022080419585108757,0.007028179243206978,-0.13035081326961517,0.020821036770939827,-0.03951270505785942,-0.013991097919642925,0.039561111479997635,-0.0016325567848980427,0.060351453721523285,-0.047667693346738815,-0.036688387393951416,-0.011093384586274624,0.035676393657922745,0.04209406301379204,0.04725462198257446,-0.0025077550671994686,0.025324365124106407,-0.00047260840074159205,-0.0022670284379273653,0.04653759300708771,-0.05738658457994461,0.03853309154510498,0.00239295931532979,0.032840605825185776,0.04531225934624672,-0.05689060688018799,-0.07201419025659561,0.014139390550553799,-0.05659092590212822,0.04810072109103203,-0.003970364574342966,-0.0036995243281126022,-0.06996294111013412,-0.06474684923887253,-0.014251814223825932,0.04700009897351265,-0.10091061890125275,-0.05949809029698372,0.07752015441656113,0.014571205712854862,-0.06564447283744812,-0.024510562419891357,0.012390322051942348,-0.04330066591501236,-0.022337593138217926,-0.04221343621611595,0.01704530231654644,0.03834929317235947,-0.03525877743959427,0.05094331502914429,-0.01554272510111332,0.04075504466891289,-0.04625348746776581,-0.11621619015932083,-0.011652705259621143,-0.060443710535764694,-0.024313008412718773,0.010508106090128422,-0.04495041444897652,-0.0027023600414395332,-0.017729222774505615,0.04885971546173096,-0.012844135984778404,-0.036824051290750504,0.005653069820255041,0.07652773708105087,0.02945987693965435,-0.030787281692028046,-0.05810336768627167,-0.0011690187966451049,-0.030599601566791534,0.02351772040128708,0.003692758735269308,-0.01129941176623106,-0.0009473892860114574,-0.023771408945322037,0.05716989189386368,-0.0011893631890416145,-0.03009250946342945,-0.026945820078253746,0.010217493399977684,0.032159797847270966,0.028907932341098785,-0.005467453971505165,-0.012230427004396915,0.008779551833868027,-0.009653865359723568,0.02935027703642845,-0.01904142275452614,0.0021488238126039505,0.026640918105840683,0.014555900357663631,-0.004165235441178083,0.014841102063655853,0.04784201830625534,0.0009810274932533503,0.029858052730560303,-0.0360477976500988,-0.06477189809083939,0.009620333090424538,-0.01617511548101902,0.020433807745575905,0.03970041498541832,-0.013732215389609337,-0.024914924055337906,0.00042586037307046354,0.01811777614057064,-0.009095652028918266,0.049194786697626114,-0.00480584055185318,0.004997116047888994,-0.009030122309923172,-2.683936600078596e-06,-0.09238826483488083,0.023359743878245354,0.04575962573289871,-0.028031855821609497,-0.028266875073313713,-0.03557691350579262,-0.02472435124218464,0.027501316741108894,-0.0735228881239891,0.040244780480861664,0.0249704010784626,-0.01848524622619152,0.014425408095121384,-0.00012552911357488483,0.0030275925528258085,0.01738804765045643,-0.0003526416257955134,0.012576538138091564,0.003864588448777795,-0.017538147047162056,0.04634697362780571,0.006697961129248142,-0.014994348399341106,-0.010834204033017159,0.04782459884881973,-0.033627793192863464,0.04499543458223343,-0.0340079665184021,0.0035580815747380257,0.06799470633268356,0.042294345796108246,-0.046101149171590805,-0.011225729249417782,-0.006748483050614595,-0.004805079195648432,-0.008298845961689949,0.04069521650671959,-0.038101278245449066,-0.0034051225520670414,-0.03422735631465912,-0.024602757766842842,-0.02707439288496971,-0.05001269653439522,-0.02121904492378235,-0.00732898386195302,-0.017902038991451263,0.028253890573978424,-0.007878277450799942,-0.0801606997847557,0.009109633043408394,0.041950248181819916,0.0012327959993854165,0.04505521431565285,-0.038386281579732895,-0.042960718274116516,-0.05635916814208031,0.0330350399017334,0.007176091894507408,-0.0061804186552762985,0.010663256980478764,-0.018834074959158897,0.002952131675556302,0.009937996044754982,0.06136367470026016,-0.020895633846521378,-0.004504216369241476,0.03537729009985924,-0.04873121902346611,0.009363194927573204,0.015894167125225067,-0.0017472720937803388,0.047443751245737076,0.014253617264330387
matthei,-0.004676941782236099,0.004764363635331392,-0.008471548557281494,-0.004210520535707474,0.0846194475889206,0.03436976298689842,-0.07327266782522202,-0.00668460363522172,-0.0044262949377298355,0.07310134917497635,0.05124809592962265,0.05907493457198143,0.00899147056043148,0.021507540717720985,0.02863919548690319,0.008166303858160973,-0.03346000611782074,-0.019886484369635582,-0.003325072815641761,0.04884597286581993,0.008672132156789303,-0.033221226185560226,-0.008919980376958847,-0.00856348779052496,0.0048643299378454685,-0.007289614528417587,-0.012085892260074615,-0.04711117222905159,-0.0023553778883069754,-0.05796371027827263,0.014461003243923187,-0.02134557254612446,0.027292568236589432,0.02006254717707634,-0.0021945873741060495,0.0020446814596652985,0.0766557976603508,0.005668506026268005,0.023058071732521057,0.03442596271634102,-0.024827098473906517,-0.03128432855010033,0.004049209412187338,0.012563292868435383,-0.009533916600048542,-0.03842778876423836,0.005092225968837738,0.002109754830598831,-0.10265111178159714,-0.026955274865031242,0.005850133951753378,-0.039672672748565674,-0.026331162080168724,0.029487695544958115,-0.013957691378891468,-0.012653209269046783,0.03941014036536217,-0.001244993763975799,-0.013792631216347218,-0.0056874752044677734,0.04403400048613548,0.002637992613017559,0.014167144894599915,0.0013249184703454375,0.013009636662900448,-0.008422674611210823,0.007747113239020109,0.04350287839770317,-0.017998933792114258,0.07033950090408325,0.006641574203968048,-0.014408145099878311,-0.00795900821685791,-0.034171365201473236,0.01106086652725935,-0.00924491323530674,0.02328607626259327,0.06167225539684296,0.08253956586122513,-0.00706701073795557,0.06596221774816513,0.03952700272202492,-0.01778813637793064,-0.017203940078616142,-0.061688799411058426,-0.00517217768356204,-0.010851635597646236,0.01051970012485981,0.028317738324403763,-0.0565391480922699,-0.0012475610710680485,0.051993466913700104,0.09818834811449051,-0.0001180303079308942,0.02596352808177471,0.059820134192705154,-0.017892368137836456,-0.03141941502690315,-0.015494578517973423,0.02324995957314968,-0.025646336376667023,0.0417834147810936,-0.010811050422489643,-0.07230138778686523,0.012808380648493767,0.010296200402081013,-0.029073568060994148,-0.051841557025909424,0.004567934665828943,0.01310662366449833,0.009675211273133755,0.006041189190000296,-0.060658566653728485,-0.001561510842293501,-0.009248360060155392,-0.024648554623126984,0.006916965823620558,0.007356150541454554,0.0004912966396659613,-0.0021486603654921055,0.009912790730595589,-0.04665353521704674,0.004195910878479481,-0.061101801693439484,0.08916373550891876,0.009794597513973713,-0.03196733444929123,0.01496217679232359,-0.0014771673595532775,-0.03309936076402664,0.0013090395368635654,-0.019261864945292473,-0.03209351375699043,0.003281425219029188,0.004305572714656591,-0.030442284420132637,-0.0022193605545908213,-0.011788494884967804,-0.023049654439091682,0.033972181379795074,0.04645020142197609,0.0825093686580658,0.09661149978637695,0.032570235431194305,0.0008288130047731102,0.041844382882118225,0.04713493213057518,0.006938036065548658,0.03326372057199478,-0.005431849975138903,0.05505708232522011,-0.01921992003917694,0.08136940747499466,-0.009829748421907425,-0.0006644227541983128,-0.019164282828569412,0.011256230995059013,-0.0030697735492140055,0.03640138357877731,0.06421361118555069,-0.05314591899514198,0.03798052668571472,0.010864992626011372,0.003480584593489766,-0.025956545025110245,-0.035758327692747116,-0.040919944643974304,-0.030900711193680763,0.011542902328073978,0.005536009091883898,0.02851058542728424,-0.011923332698643208,0.05404942110180855,-0.02052047662436962,0.06365323811769485,-0.02433929406106472,-0.06712393462657928,0.0003066772478632629,-0.028211990371346474,-0.01795722357928753,0.005149003118276596,-0.08086355030536652,-9.078762377612293e-05,-0.03077198565006256,-0.03702666237950325,0.011880658566951752,-0.008679184131324291,-0.005681456532329321,-0.010454823262989521,-0.03850992023944855,-0.025821445509791374,0.028408220037817955,0.07689687609672546,0.03626800701022148,-0.0290176160633564,-0.04490312561392784,0.03174084052443504,0.024815324693918228,0.024867311120033264,-0.002987934509292245,-0.11242850124835968,0.02800176665186882,-0.04705984145402908,-0.006586920469999313,0.02083231508731842,-0.015432539395987988,0.06352699548006058,-0.04268987104296684,-0.03757408261299133,-0.0010123711545020342,0.028739675879478455,0.04064366966485977,0.03974112123250961,-0.008256645873188972,0.02151913195848465,0.004492695908993483,0.0009449481731280684,0.03587199002504349,-0.057465944439172745,0.029552439227700233,0.00918995775282383,0.0483258031308651,0.038638871163129807,-0.057758450508117676,-0.07420554757118225,0.010127983056008816,-0.047993093729019165,0.045333631336688995,-0.011690586805343628,0.00975384097546339,-0.07171745598316193,-0.08953859657049179,0.0024136800784617662,0.04189838096499443,-0.10004077851772308,-0.049281373620033264,0.08619369566440582,0.018559910356998444,-0.06300555914640427,-0.02163510210812092,0.00901556946337223,-0.05068333446979523,-0.02842879854142666,-0.03071598708629608,0.01903047226369381,0.03145454451441765,-0.037376657128334045,0.059081077575683594,-0.019631272181868553,0.04256519675254822,-0.05665545165538788,-0.12755300104618073,-0.004936307203024626,-0.04586747661232948,-0.023109635338187218,0.007634088862687349,-0.05455981567502022,-0.002020399086177349,-0.015837809070944786,0.03720005601644516,0.006285650189965963,-0.044710129499435425,-0.001153073157183826,0.08975441753864288,0.04125998914241791,-0.03199893236160278,-0.04525481164455414,0.0023467564024031162,-0.024766143411397934,0.010735276155173779,-0.0025916555896401405,-0.006956363562494516,-0.01404058188199997,-0.023319680243730545,0.061398644000291824,0.0014559273840859532,-0.03360925242304802,-0.03294120356440544,0.0158457700163126,0.03849240764975548,0.03558829426765442,0.005673590116202831,0.0005525399465113878,0.00928676500916481,-0.009859650395810604,0.02435343526303768,-0.007498919032514095,0.007192503660917282,0.01652129553258419,0.017293119803071022,0.0014161424478515983,0.012948483228683472,0.04768957197666168,-0.00480995699763298,0.03300526365637779,-0.031049484387040138,-0.05346148833632469,0.010269946418702602,-0.01832030527293682,0.019342917948961258,0.05092882737517357,-0.014981122687458992,-0.02667412906885147,0.004582532215863466,0.009364617057144642,0.0017750586848706007,0.055160749703645706,-0.009302963502705097,0.007756134029477835,-0.0034589089918881655,0.0063414303585886955,-0.10078936070203781,0.02963918261229992,0.04050350934267044,-0.023228103294968605,-0.015356200747191906,-0.028856288641691208,-0.02341843955218792,0.027886100113391876,-0.07264526933431625,0.030186668038368225,0.0331764779984951,-0.03255516663193703,0.014015808701515198,-0.02252214029431343,0.0014454188058152795,-0.004729565232992172,-0.007018771022558212,0.014757812023162842,0.006218492519110441,0.0034674257040023804,0.044947300106287,0.018424730747938156,-0.018374143168330193,-0.005102979950606823,0.03404143452644348,-0.027503307908773422,0.05164077505469322,-0.04006185382604599,0.0027535096742212772,0.07480061799287796,0.04242509976029396,-0.046941839158535004,-0.00944081973284483,-0.0015983665362000465,-0.006725391373038292,0.001443074899725616,0.05545911565423012,-0.03779042884707451,0.0024544503539800644,-0.032645467668771744,-0.025472424924373627,-0.033055879175662994,-0.04758356884121895,-0.010232854634523392,-0.006523616146296263,-0.018470825627446175,0.020998874679207802,-0.012102781794965267,-0.07967937737703323,0.0065630339086055756,0.041080061346292496,0.0019035037839785218,0.043924544006586075,-0.023890187963843346,-0.05301699787378311,-0.04255380481481552,0.010698789730668068,0.016393037512898445,0.0004806446086149663,-0.002795970067381859,-0.020722871646285057,0.005786620546132326,0.014189504086971283,0.04686124995350838,0.00039831874892115593,-0.0008475878858007491,0.029731804504990578,-0.04120022803544998,0.019663460552692413,0.009126695804297924,-0.01094859093427658,0.04683529585599899,0.014136414974927902
meo,-0.00532987667247653,0.0030787689611315727,-0.007388286292552948,-0.01575278304517269,0.09329564869403839,0.026990972459316254,-0.07360367476940155,0.005505486391484737,-0.003295467933639884,0.0605214387178421,0.05235428735613823,0.04678279161453247,0.007175202015787363,0.01614212617278099,0.023105913773179054,-0.0017086280276998878,-0.047372590750455856,-0.04014444351196289,0.011835704557597637,0.05788184329867363,0.031615689396858215,-0.03293563053011894,-0.019068555906414986,-0.01358794141560793,0.02075137197971344,-0.0025240967515856028,-0.008564873598515987,-0.04223763570189476,0.0009542261250317097,-0.06641325354576111,0.023764992132782936,-0.005529837217181921,0.02328038588166237,0.014301612041890621,0.02066243626177311,-0.010374377481639385,0.07141835242509842,-0.002508888253942132,0.02515467442572117,0.044510144740343094,-0.018415695056319237,-0.03537276014685631,-0.0031982630025595427,0.007681317627429962,-0.0023561371490359306,-0.032115135341882706,0.006581462454050779,-0.009081469848752022,-0.10393714904785156,-0.024352120235562325,0.01754685677587986,-0.0402948372066021,-0.02746334858238697,0.02175247296690941,-0.017687106505036354,-0.0050764852203428745,0.037298448383808136,-0.002838623709976673,-0.015925398096442223,-0.0023354303557425737,0.028022168204188347,0.014512347057461739,0.008885028772056103,-0.014701565727591515,0.01713213510811329,-0.008068106137216091,0.010874049738049507,0.021185124292969704,-0.017964694648981094,0.07637752592563629,0.016746489331126213,-0.030491678044199944,-0.01712760142982006,-0.04755912348628044,0.0013141370145604014,-0.020679892972111702,0.03514781966805458,0.09114407002925873,0.07224282622337341,-0.010943630710244179,0.06326421350240707,0.03449395298957825,-0.015833565965294838,-0.016217418015003204,-0.056196484714746475,-0.0030426946468651295,-0.0020052401814609766,0.006823544390499592,0.03222130611538887,-0.041080404072999954,0.010282729752361774,0.039904359728097916,0.09194397181272507,-0.012829646468162537,0.03790256381034851,0.06498362123966217,-0.02384764701128006,-0.028863143175840378,-0.016849052160978317,0.029043514281511307,-0.022610146552324295,0.05925363674759865,-0.012294095940887928,-0.06219451129436493,0.008646429516375065,0.02245323918759823,-0.035643771290779114,-0.033805690705776215,0.01907503977417946,0.003637520130723715,0.018427206203341484,0.009069805964827538,-0.0502515509724617,-0.01241969969123602,-0.02056710422039032,-0.026010112836956978,0.0018948584329336882,0.009072551503777504,-0.0004925343091599643,0.0011250245152041316,0.018649816513061523,-0.0361599400639534,0.010572006925940514,-0.05067802965641022,0.06151779368519783,0.026178617030382156,-0.02837528847157955,0.0013195086503401399,-0.005701911635696888,-0.045584119856357574,-0.0028969328850507736,-0.03294382244348526,-0.05849890783429146,-0.001166942878626287,0.015652256086468697,-0.0332152284681797,0.0032893260940909386,-0.015433007851243019,-0.018962271511554718,0.04733375087380409,0.023899134248495102,0.08972129970788956,0.08700381964445114,0.032593920826911926,0.005337968468666077,0.041711945086717606,0.05923766270279884,0.01662169024348259,0.030452676117420197,-0.004242932423949242,0.04006141796708107,-0.020137425512075424,0.08759157359600067,-0.0060990653000772,-0.007602712605148554,-0.021945329383015633,-0.008430534042418003,0.008577902801334858,0.033063944429159164,0.061548396944999695,-0.05130016431212425,0.02692188136279583,0.010672333650290966,-0.001983591355383396,-0.0032006269320845604,-0.026471277698874474,-0.0515691377222538,-0.03112487494945526,0.014492306858301163,0.011150418780744076,0.029541248455643654,0.0055014025419950485,0.04924766719341278,-0.023991532623767853,0.06787227839231491,-0.01990201137959957,-0.047261517494916916,-0.012641442008316517,-0.03207629546523094,-0.02056543529033661,-0.0008362536318600178,-0.08014009892940521,0.003439142368733883,-0.03821573406457901,-0.040229469537734985,-0.002399344462901354,-0.0074413372203707695,-0.008632455952465534,-0.017122311517596245,-0.027363041415810585,-0.042753126472234726,0.017624132335186005,0.05751606076955795,0.07339213788509369,-0.042315661907196045,-0.03075866773724556,0.05776657164096832,0.03296605125069618,0.027893217280507088,-0.010809384286403656,-0.10256786644458771,0.033684294670820236,-0.03806707262992859,-0.010679218918085098,0.012229119427502155,-0.02311873249709606,0.05206262692809105,-0.03307240456342697,-0.04309975728392601,-0.00234788004308939,0.03632606938481331,0.0251773614436388,0.023657070472836494,-0.0024179047904908657,0.03589576855301857,0.018874526023864746,0.017543112859129906,0.019418416544795036,-0.06705033779144287,0.026555757969617844,0.027083933353424072,0.05801583081483841,0.04253494739532471,-0.04919518530368805,-0.054595258086919785,0.012907600030303001,-0.06054069846868515,0.05297434329986572,-0.005579401273280382,0.014429916627705097,-0.06585988402366638,-0.06854183226823807,0.002366771688684821,0.03111669048666954,-0.07541345804929733,-0.03434072434902191,0.0838751420378685,0.018440457060933113,-0.05864671617746353,-0.019036071375012398,-0.0006031441153027117,-0.06102243810892105,-0.025843976065516472,-0.02392827905714512,0.005929518491029739,0.01277870498597622,-0.03328686207532883,0.06961017102003098,-0.021214013919234276,0.041631631553173065,-0.059061840176582336,-0.13044871389865875,-0.00037816629628650844,-0.0429668091237545,-0.01884477026760578,0.008858184330165386,-0.04965696111321449,-0.0008390244911424816,-0.018927505239844322,0.02307538315653801,-0.003391302190721035,-0.06159093603491783,0.002217934001237154,0.08768810331821442,0.03476906195282936,-0.03448369354009628,-0.02007301338016987,0.006716730538755655,-0.03260083496570587,0.0024861192796379328,0.0008771157590672374,-0.011653617024421692,0.00907507911324501,-0.02251412905752659,0.05271868035197258,-0.00574475945904851,-0.026956850662827492,-0.023258814588189125,0.0031156246550381184,0.022891776636242867,0.041597843170166016,0.02237328328192234,0.0021619703620672226,0.017011012881994247,0.006475131493061781,0.02780119702219963,-0.007689759600907564,0.005962810013443232,0.003215026343241334,0.009556488133966923,0.004219735972583294,0.012296771630644798,0.05357987433671951,-0.0007984349504113197,0.028798282146453857,-0.03242938220500946,-0.05259241163730621,0.010322537273168564,-0.01428329199552536,0.024266304448246956,0.035294488072395325,-0.026919648051261902,-0.0068069938570261,0.00361926993355155,-0.002378135686740279,0.016418348997831345,0.037542298436164856,-0.011927982792258263,0.00580845819786191,-0.01085328496992588,0.0044634221121668816,-0.10324638336896896,0.025548050180077553,0.05049537867307663,-0.018814099952578545,-0.020625438541173935,-0.03006214089691639,-0.005725625902414322,0.02365681156516075,-0.07176607102155685,0.039372991770505905,0.03955639898777008,-0.023409565910696983,0.03268826752901077,-0.01711442694067955,0.003044766141101718,-0.004978647921234369,-0.030013099312782288,0.028765639290213585,0.0003024339384865016,0.01624947600066662,0.04673375189304352,0.003293658373877406,-0.023956414312124252,-0.027861731126904488,0.021575985476374626,-0.025889741256833076,0.06683141738176346,-0.035988688468933105,-0.006807963829487562,0.05964095517992973,0.03394459933042526,-0.046040717512369156,-0.02570728026330471,-0.007258505094796419,0.004915785975754261,0.0038406357634812593,0.06014092266559601,-0.03784806653857231,0.018002036958932877,-0.028787996619939804,-0.030384404584765434,-0.04127725586295128,-0.056277111172676086,-0.025563068687915802,0.003521999577060342,-0.017517127096652985,0.018004179000854492,-0.01790604740381241,-0.07740480452775955,0.012634441256523132,0.04087663069367409,0.0011773414444178343,0.030880846083164215,-0.023219900205731392,-0.04901610314846039,-0.03715169057250023,0.016346046701073647,0.026126563549041748,0.006077796220779419,-0.0002712132700253278,-0.02037307620048523,0.0034302028361707926,0.001105411909520626,0.050022270530462265,0.00035275574191473424,-0.005147884599864483,0.025389477610588074,-0.04609299451112747,0.004069107118993998,-0.0015104529447853565,-0.02131837047636509,0.05079008638858795,0.010542037896811962
parisi,0.005439151078462601,0.010541681200265884,-0.013037091121077538,-0.018469590693712234,0.06274761259555817,0.02020185813307762,-0.05207962170243263,0.015249909833073616,-0.013399748131632805,0.06079870089888573,0.0403403602540493,0.040553685277700424,0.012319767847657204,0.017748169600963593,0.008173147216439247,-3.8317000871757045e-05,-0.02599881961941719,-0.025328965857625008,0.00899939239025116,0.04432591423392296,0.02714082971215248,-0.03687140345573425,0.0005434023914858699,-0.009376222267746925,0.0026950985193252563,-0.004028138238936663,-0.02319236844778061,-0.04237911477684975,2.8742653739755042e-05,-0.06481850147247314,0.0064719258807599545,-0.0042079440318048,0.015356638468801975,0.010305184870958328,0.0021385690197348595,0.0012950323289260268,0.045765768736600876,-0.0018956054700538516,0.009229798801243305,0.04019390046596527,-0.014889305457472801,-0.024702804163098335,0.002907224465161562,0.012794416397809982,-0.01115933246910572,-0.026786532253026962,-0.005394949112087488,-0.004057358950376511,-0.10889608412981033,-0.022257555276155472,0.006893097888678312,-0.0413333885371685,-0.008475098758935928,0.002773582935333252,-0.01859816536307335,-0.014684613794088364,0.038899462670087814,-0.0012501394376158714,-0.016220876947045326,0.0028952104039490223,0.030647147446870804,0.0012829722836613655,-0.006084572523832321,-0.004493890795856714,0.01285986416041851,0.0049156504683196545,0.010415269061923027,0.02031962387263775,-0.0019506323151290417,0.04615394398570061,0.0017825195100158453,-0.02231437712907791,-0.031603340059518814,-0.02901110239326954,0.01100655272603035,0.006048703100532293,0.022699449211359024,0.07178541272878647,0.07793035358190536,-0.03747139498591423,0.04870907962322235,0.026693424209952354,-0.0060712979175150394,-0.01155324000865221,-0.04893568158149719,-0.009531429037451744,0.007695110514760017,0.024655427783727646,0.032595403492450714,-0.028830496594309807,0.02557084709405899,0.016094248741865158,0.07877553254365921,-0.011208144947886467,0.015571755357086658,0.048243314027786255,-0.015911901369690895,-0.039803486317396164,0.007165675517171621,0.053094543516635895,-0.023969165980815887,0.032539304345846176,-0.029813269153237343,-0.035353273153305054,0.003026922233402729,0.014873739331960678,-0.017455289140343666,-0.05373053997755051,0.015316519886255264,0.0007719247951172292,-0.0038104390259832144,0.021978430449962616,-0.04485221579670906,-0.02129671908915043,-0.016538841649889946,0.004281521309167147,-0.003460868261754513,0.019870661199092865,0.02104736678302288,0.003467312315478921,-5.410571611719206e-05,-0.0519346185028553,0.034164924174547195,-0.04300547391176224,0.058502696454524994,0.015029223635792732,-0.04031116142868996,0.000581132248044014,-0.023050058633089066,-0.0556773841381073,0.004889437463134527,-0.022789807990193367,-0.04829202592372894,-0.004894740413874388,0.010974469594657421,-0.01340267714112997,-6.268302240641788e-05,-0.01841151900589466,-0.01913134939968586,0.054936859756708145,0.03822014853358269,0.06995642930269241,0.08970998227596283,0.04590636491775513,0.015478391200304031,0.06694870442152023,0.041543375700712204,0.007734598126262426,0.026758559048175812,-0.008902659639716148,0.04742598906159401,-0.015575694851577282,0.07829537987709045,-0.009355803020298481,-0.0028598590288311243,-0.01396072469651699,0.014639172703027725,-0.0030811429023742676,0.041168488562107086,0.0387297086417675,-0.04479561001062393,0.022613488137722015,0.02036779746413231,0.017072129994630814,-0.02569429576396942,-0.03794775903224945,-0.0387532003223896,-0.04684820771217346,0.0008555905078537762,0.015372350811958313,0.022093063220381737,-0.016499681398272514,0.037714190781116486,-0.033683255314826965,0.03563883900642395,-0.029229208827018738,-0.04594728350639343,0.005472735036164522,-0.0331704206764698,-0.018915114924311638,0.013328870758414268,-0.07130231708288193,0.00878632441163063,-0.017885722219944,-0.024061545729637146,-0.00016330234939232469,-0.006626924499869347,-0.007366043049842119,-0.011712196283042431,-0.008629937656223774,-0.05555710196495056,0.023934809491038322,0.05766523629426956,0.04367420822381973,-0.02630537562072277,-0.038896869868040085,0.05947749689221382,0.004945358727127314,0.005108069162815809,-0.0007184885907918215,-0.09763482958078384,0.026828721165657043,-0.05123209208250046,-0.01362787839025259,-0.008395140059292316,-0.014913003891706467,0.04897831007838249,-0.04269331321120262,-0.02021961845457554,0.017478512600064278,0.015132836997509003,0.02347850613296032,0.011408512480556965,-0.004066519904881716,0.03095068596303463,0.009917722083628178,-0.014782601036131382,0.026993026956915855,-0.0532534196972847,0.016375377774238586,-0.0034434758126735687,0.046588752418756485,0.05274207517504692,-0.06219609081745148,-0.06901874393224716,0.016401156783103943,-0.04100596904754639,0.02652554027736187,-0.005536825396120548,0.01681644469499588,-0.05067690461874008,-0.08286711573600769,0.010614980943500996,0.030981160700321198,-0.08925702422857285,-0.03880925849080086,0.0684419497847557,0.015745515003800392,-0.045367494225502014,-0.015966525301337242,-0.031940117478370667,-0.036930207163095474,-0.016421129927039146,-0.016144711524248123,0.012190117500722408,0.015690309926867485,-0.02155984751880169,0.04501180350780487,-0.019653772935271263,0.03738189488649368,-0.0580553375184536,-0.10567989945411682,-0.0071370285004377365,-0.026139214634895325,-0.009454142302274704,-0.002823375631123781,-0.055574025958776474,0.01684735342860222,-0.02721518650650978,0.009104415774345398,0.0224884245544672,-0.03454319387674332,0.0046813469380140305,0.07925819605588913,0.04111335426568985,-0.01399232354015112,-0.019431721419095993,0.011418896727263927,-0.03125439211726189,-0.007391911465674639,-0.0071968999691307545,-0.022057197988033295,0.0027855734806507826,-0.02398255653679371,0.038191165775060654,0.001157341874204576,-0.016760310158133507,-0.029275035485625267,0.009457889944314957,0.03904633969068527,0.03516727313399315,0.013844914734363556,0.014820544049143791,0.020768549293279648,0.01473561767488718,0.02140986919403076,-0.007315908558666706,-0.0019306218018755317,-0.008362449705600739,0.019528619945049286,0.0074310447089374065,0.020967459306120872,0.027731791138648987,-0.007698648143559694,0.022305795922875404,-0.022102361544966698,-0.037052154541015625,-0.01191007625311613,-0.026041388511657715,0.017947278916835785,0.025820115581154823,-0.01660136692225933,-0.01632523722946644,0.003674799809232354,0.01121543813496828,-0.002071616007015109,0.04200267791748047,0.005389007739722729,0.017814090475440025,-0.011206300929188728,0.016586150974035263,-0.09258566796779633,0.022069701924920082,0.03631071373820305,-0.015095780603587627,-0.017818858847022057,-0.016393152996897697,0.00027248988044448197,0.020960083231329918,-0.07223378121852875,0.013635474257171154,0.032698724418878555,-0.011076636612415314,0.03691766783595085,-0.005126547999680042,0.010367782786488533,-0.02486650086939335,0.0011958995601162314,0.01594419591128826,0.013959767296910286,-0.0007081206422299147,0.03745624050498009,0.0069459048099815845,-0.016609448939561844,0.0026649129576981068,0.00854533351957798,-0.02188665047287941,0.0651947408914566,-0.03419534116983414,0.005911001469939947,0.07146105915307999,0.044879522174596786,-0.03777327761054039,-0.007246584631502628,-0.014775210991501808,-0.004413519985973835,0.022143129259347916,0.07441332191228867,-0.030336817726492882,0.0205609742552042,-0.02018694393336773,-0.005548565648496151,-0.012442127801477909,-0.02532399259507656,-0.009682497009634972,-0.00024447249597869813,-0.02696925774216652,0.009658091701567173,-0.011836099438369274,-0.05454038083553314,-0.0037988198455423117,0.01862051524221897,0.003917457070201635,0.03407071530818939,-0.004001263063400984,-0.029646923765540123,-0.057242363691329956,0.0007841332699172199,0.026272796094417572,0.002190979430451989,-7.742250454612076e-05,-0.022385239601135254,0.0005835969350300729,0.008196663111448288,0.024318117648363113,0.024135345593094826,0.015116510912775993,0.010343550704419613,-0.026831576600670815,0.016727106645703316,-0.009363935329020023,-0.016172857955098152,0.03459525853395462,0.007872038520872593
